<?xml version="1.0"?>
<MethodSetup Method="BDT::BDT_0L_3J_150ptv_1of2">
  <GeneralInfo>
    <Info name="TMVA Release" value="4.2.1 [262657]"/>
    <Info name="ROOT Release" value="6.14/08 [396808]"/>
    <Info name="Creator" value="eschopf"/>
    <Info name="Date" value="Wed Nov 13 01:09:39 2019"/>
    <Info name="Host" value="Linux aibuild016.cern.ch 2.6.32-754.3.5.el6.x86_64 #1 SMP Wed Aug 15 08:57:36 CEST 2018 x86_64 x86_64 x86_64 GNU/Linux"/>
    <Info name="Dir" value="/afs/cern.ch/work/e/eschopf/MVATraining_2019_08_22/run/newExtensions"/>
    <Info name="Training events" value="9775811"/>
    <Info name="TrainingTime" value="1.94094527e+03"/>
    <Info name="AnalysisType" value="Classification"/>
  </GeneralInfo>
  <Options>
    <Option name="V" modified="No">False</Option>
    <Option name="VerbosityLevel" modified="No">Default</Option>
    <Option name="VarTransform" modified="No">None</Option>
    <Option name="H" modified="No">False</Option>
    <Option name="CreateMVAPdfs" modified="No">False</Option>
    <Option name="IgnoreNegWeightsInTraining" modified="No">False</Option>
    <Option name="NTrees" modified="Yes">200</Option>
    <Option name="MaxDepth" modified="Yes">4</Option>
    <Option name="MinNodeSize" modified="Yes">5</Option>
    <Option name="nCuts" modified="Yes">100</Option>
    <Option name="BoostType" modified="Yes">Grad</Option>
    <Option name="AdaBoostR2Loss" modified="No">quadratic</Option>
    <Option name="UseBaggedBoost" modified="No">False</Option>
    <Option name="Shrinkage" modified="Yes">5.000000e-01</Option>
    <Option name="AdaBoostBeta" modified="No">5.000000e-01</Option>
    <Option name="UseRandomisedTrees" modified="No">False</Option>
    <Option name="UseNvars" modified="No">4</Option>
    <Option name="UsePoissonNvars" modified="No">True</Option>
    <Option name="BaggedSampleFraction" modified="No">6.000000e-01</Option>
    <Option name="UseYesNoLeaf" modified="No">True</Option>
    <Option name="NegWeightTreatment" modified="No">pray</Option>
    <Option name="Css" modified="No">1.000000e+00</Option>
    <Option name="Cts_sb" modified="No">1.000000e+00</Option>
    <Option name="Ctb_ss" modified="No">1.000000e+00</Option>
    <Option name="Cbb" modified="No">1.000000e+00</Option>
    <Option name="NodePurityLimit" modified="No">5.000000e-01</Option>
    <Option name="SeparationType" modified="Yes">giniindex</Option>
    <Option name="RegressionLossFunctionBDTG" modified="No">huber</Option>
    <Option name="HuberQuantile" modified="No">7.000000e-01</Option>
    <Option name="DoBoostMonitor" modified="No">False</Option>
    <Option name="UseFisherCuts" modified="No">False</Option>
    <Option name="MinLinCorrForFisher" modified="No">8.000000e-01</Option>
    <Option name="UseExclusiveVars" modified="No">False</Option>
    <Option name="DoPreselection" modified="No">False</Option>
    <Option name="SigToBkgFraction" modified="No">1.000000e+00</Option>
    <Option name="PruneMethod" modified="Yes">nopruning</Option>
    <Option name="PruneStrength" modified="No">0.000000e+00</Option>
    <Option name="PruningValFraction" modified="No">5.000000e-01</Option>
    <Option name="SkipNormalization" modified="No">False</Option>
    <Option name="nEventsMin" modified="No">0</Option>
    <Option name="UseBaggedGrad" modified="No">False</Option>
    <Option name="GradBaggingFraction" modified="No">6.000000e-01</Option>
    <Option name="UseNTrainEvents" modified="No">0</Option>
    <Option name="NNodesMax" modified="No">0</Option>
  </Options>
  <Variables NVar="13">
    <Variable VarIndex="0" Expression="MET" Label="MET" Title="MET" Unit="" Internal="MET" Type="F" Min="1.50000015e+02" Max="4.59679993e+02"/>
    <Variable VarIndex="1" Expression="MEff" Label="MEff" Title="MEff" Unit="" Internal="MEff" Type="F" Min="3.02959625e+02" Max="1.03375000e+03"/>
    <Variable VarIndex="2" Expression="dPhiVBB" Label="dPhiVBB" Title="dPhiVBB" Unit="" Internal="dPhiVBB" Type="F" Min="1.13385785e+00" Max="3.14000010e+00"/>
    <Variable VarIndex="3" Expression="pTB1" Label="pTB1" Title="pTB1" Unit="" Internal="pTB1" Type="F" Min="4.77381210e+01" Max="3.95149994e+02"/>
    <Variable VarIndex="4" Expression="pTB2" Label="pTB2" Title="pTB2" Unit="" Internal="pTB2" Type="F" Min="2.39967346e+01" Max="1.63610001e+02"/>
    <Variable VarIndex="5" Expression="mBB" Label="mBB" Title="mBB" Unit="" Internal="mBB" Type="F" Min="1.66678791e+01" Max="4.15880005e+02"/>
    <Variable VarIndex="6" Expression="dRBB" Label="dRBB" Title="dRBB" Unit="" Internal="dRBB" Type="F" Min="2.03138620e-01" Max="3.18000007e+00"/>
    <Variable VarIndex="7" Expression="dEtaBB" Label="dEtaBB" Title="dEtaBB" Unit="" Internal="dEtaBB" Type="F" Min="4.76837158e-07" Max="2.78999996e+00"/>
    <Variable VarIndex="8" Expression="softMET" Label="softMET" Title="softMET" Unit="" Internal="softMET" Type="F" Min="0.00000000e+00" Max="3.66899986e+01"/>
    <Variable VarIndex="9" Expression="bin_MV2c10B1" Label="bin_MV2c10B1" Title="bin_MV2c10B1" Unit="" Internal="bin_MV2c10B1" Type="F" Min="4.00000000e+00" Max="5.00000000e+00"/>
    <Variable VarIndex="10" Expression="bin_MV2c10B2" Label="bin_MV2c10B2" Title="bin_MV2c10B2" Unit="" Internal="bin_MV2c10B2" Type="F" Min="4.00000000e+00" Max="5.00000000e+00"/>
    <Variable VarIndex="11" Expression="pTJ3" Label="pTJ3" Title="pTJ3" Unit="" Internal="pTJ3" Type="F" Min="2.00000019e+01" Max="2.72880005e+02"/>
    <Variable VarIndex="12" Expression="mBBJ" Label="mBBJ" Title="mBBJ" Unit="" Internal="mBBJ" Type="F" Min="4.00221291e+01" Max="1.13918005e+03"/>
  </Variables>
  <Spectators NSpec="0"/>
  <Classes NClass="2">
    <Class Name="Signal" Index="0"/>
    <Class Name="Background" Index="1"/>
  </Classes>
  <Transformations NTransformations="0"/>
  <MVAPdfs/>
  <Weights NTrees="200" AnalysisType="1">
    <BinaryTree type="DecisionTree" boostWeight="1.0000000000000000e+00" itree="0">
      <Node pos="s" depth="0" NCoef="0" IVar="5" Cut="1.1548276519775391e+02" cType="1" res="1.1961664602886616e-14" rms="5.0000000000000000e-01" purity="5.0000000000000000e-01" nType="0">
        <Node pos="l" depth="1" NCoef="0" IVar="5" Cut="6.7542869567871094e+01" cType="1" res="1.8350076675415039e-01" rms="4.6511015295982361e-01" purity="6.8350076675415039e-01" nType="0">
          <Node pos="l" depth="2" NCoef="0" IVar="5" Cut="5.4950042724609375e+01" cType="1" res="-1.2593691051006317e-01" rms="4.8388004302978516e-01" purity="3.7406307458877563e-01" nType="0">
            <Node pos="l" depth="3" NCoef="0" IVar="-1" Cut="0.0000000000000000e+00" cType="1" res="-2.0603011548519135e-01" rms="4.5557829737663269e-01" purity="2.9396986961364746e-01" nType="-99"/>
            <Node pos="r" depth="3" NCoef="0" IVar="-1" Cut="0.0000000000000000e+00" cType="1" res="-3.6310888826847076e-02" rms="4.9867978692054749e-01" purity="4.6368908882141113e-01" nType="-99"/>
          </Node>
          <Node pos="r" depth="2" NCoef="0" IVar="6" Cut="1.2547490596771240e+00" cType="1" res="2.5696858763694763e-01" rms="4.2891392111778259e-01" purity="7.5696855783462524e-01" nType="0">
            <Node pos="l" depth="3" NCoef="0" IVar="5" Cut="7.9883865356445312e+01" cType="1" res="3.2683831453323364e-01" rms="3.7838700413703918e-01" purity="8.2683831453323364e-01" nType="0">
              <Node pos="l" depth="4" NCoef="0" IVar="-1" Cut="0.0000000000000000e+00" cType="1" res="2.1520835161209106e-01" rms="4.5131516456604004e-01" purity="7.1520835161209106e-01" nType="-99"/>
              <Node pos="r" depth="4" NCoef="0" IVar="-1" Cut="0.0000000000000000e+00" cType="1" res="3.5993924736976624e-01" rms="3.4705007076263428e-01" purity="8.5993927717208862e-01" nType="-99"/>
            </Node>
            <Node pos="r" depth="3" NCoef="0" IVar="-1" Cut="0.0000000000000000e+00" cType="1" res="7.9624772071838379e-02" rms="4.9361917376518250e-01" purity="5.7962477207183838e-01" nType="-99"/>
          </Node>
        </Node>
        <Node pos="r" depth="1" NCoef="0" IVar="6" Cut="1.5239032506942749e+00" cType="1" res="-3.0081126093864441e-01" rms="3.9939025044441223e-01" purity="1.9918873906135559e-01" nType="0">
          <Node pos="l" depth="2" NCoef="0" IVar="-1" Cut="0.0000000000000000e+00" cType="1" res="-1.2824949622154236e-01" rms="4.8327225446701050e-01" purity="3.7175050377845764e-01" nType="-99"/>
          <Node pos="r" depth="2" NCoef="0" IVar="9" Cut="4.0099010467529297e+00" cType="1" res="-3.3424007892608643e-01" rms="3.7186497449874878e-01" purity="1.6575990617275238e-01" nType="0">
            <Node pos="l" depth="3" NCoef="0" IVar="-1" Cut="0.0000000000000000e+00" cType="1" res="-2.4219879508018494e-01" rms="4.3742397427558899e-01" purity="2.5780120491981506e-01" nType="-99"/>
            <Node pos="r" depth="3" NCoef="0" IVar="6" Cut="2.0158140659332275e+00" cType="1" res="-3.5997033119201660e-01" rms="3.4701782464981079e-01" purity="1.4002966880798340e-01" nType="0">
              <Node pos="l" depth="4" NCoef="0" IVar="-1" Cut="0.0000000000000000e+00" cType="1" res="-3.0785873532295227e-01" rms="3.9398351311683655e-01" purity="1.9214129447937012e-01" nType="-99"/>
              <Node pos="r" depth="4" NCoef="0" IVar="-1" Cut="0.0000000000000000e+00" cType="1" res="-3.8332900404930115e-01" rms="3.2102784514427185e-01" purity="1.1667098850011826e-01" nType="-99"/>
            </Node>
          </Node>
        </Node>
      </Node>
    </BinaryTree>
    <BinaryTree type="DecisionTree" boostWeight="1.0000000000000000e+00" itree="1">
      <Node pos="s" depth="0" NCoef="0" IVar="5" Cut="1.0757756805419922e+02" cType="1" res="4.7381643526023254e-05" rms="4.3684059381484985e-01" purity="5.0000000000000000e-01" nType="0">
        <Node pos="l" depth="1" NCoef="0" IVar="5" Cut="7.1573699951171875e+01" cType="1" res="1.0753222554922104e-01" rms="4.2901092767715454e-01" purity="6.9557654857635498e-01" nType="0">
          <Node pos="l" depth="2" NCoef="0" IVar="12" Cut="1.3796688842773438e+02" cType="1" res="-5.2885722368955612e-02" rms="4.8075997829437256e-01" purity="4.1220095753669739e-01" nType="0">
            <Node pos="l" depth="3" NCoef="0" IVar="-1" Cut="0.0000000000000000e+00" cType="1" res="4.6488232910633087e-02" rms="4.8909810185432434e-01" purity="5.0194042921066284e-01" nType="-99"/>
            <Node pos="r" depth="3" NCoef="0" IVar="-1" Cut="0.0000000000000000e+00" cType="1" res="-1.2298302352428436e-01" rms="4.6317127346992493e-01" purity="3.5088786482810974e-01" nType="-99"/>
          </Node>
          <Node pos="r" depth="2" NCoef="0" IVar="4" Cut="4.8878311157226562e+01" cType="1" res="1.6077622771263123e-01" rms="3.9629283547401428e-01" purity="7.8963118791580200e-01" nType="0">
            <Node pos="l" depth="3" NCoef="0" IVar="2" Cut="2.9822599887847900e+00" cType="1" res="7.9969160258769989e-02" rms="4.6090784668922424e-01" purity="6.7374688386917114e-01" nType="0">
              <Node pos="l" depth="4" NCoef="0" IVar="-1" Cut="0.0000000000000000e+00" cType="1" res="3.4053456038236618e-02" rms="4.7912642359733582e-01" purity="6.1618530750274658e-01" nType="-99"/>
              <Node pos="r" depth="4" NCoef="0" IVar="-1" Cut="0.0000000000000000e+00" cType="1" res="1.4617455005645752e-01" rms="4.3085309863090515e-01" purity="7.4360126256942749e-01" nType="-99"/>
            </Node>
            <Node pos="r" depth="3" NCoef="0" IVar="-1" Cut="0.0000000000000000e+00" cType="1" res="2.3029923439025879e-01" rms="3.4443417191505432e-01" purity="8.5735112428665161e-01" nType="-99"/>
          </Node>
        </Node>
        <Node pos="r" depth="1" NCoef="0" IVar="6" Cut="1.3205229043960571e+00" cType="1" res="-1.4633193612098694e-01" rms="4.0361088514328003e-01" purity="2.3365209996700287e-01" nType="0">
          <Node pos="l" depth="2" NCoef="0" IVar="-1" Cut="0.0000000000000000e+00" cType="1" res="-2.5549724232405424e-03" rms="4.8443448543548584e-01" purity="5.1356869935989380e-01" nType="-99"/>
          <Node pos="r" depth="2" NCoef="0" IVar="0" Cut="2.1745506286621094e+02" cType="1" res="-1.6827684640884399e-01" rms="3.8511884212493896e-01" purity="1.9096451997756958e-01" nType="0">
            <Node pos="l" depth="3" NCoef="0" IVar="10" Cut="4.0099010467529297e+00" cType="1" res="-1.8786013126373291e-01" rms="3.6889162659645081e-01" purity="1.7123112082481384e-01" nType="0">
              <Node pos="l" depth="4" NCoef="0" IVar="-1" Cut="0.0000000000000000e+00" cType="1" res="-1.2798936665058136e-01" rms="4.2481809854507446e-01" purity="2.4587620794773102e-01" nType="-99"/>
              <Node pos="r" depth="4" NCoef="0" IVar="-1" Cut="0.0000000000000000e+00" cType="1" res="-2.2855688631534576e-01" rms="3.5006216168403625e-01" purity="1.5136693418025970e-01" nType="-99"/>
            </Node>
            <Node pos="r" depth="3" NCoef="0" IVar="-1" Cut="0.0000000000000000e+00" cType="1" res="-1.0247914493083954e-01" rms="4.3368735909461975e-01" purity="2.6654514670372009e-01" nType="-99"/>
          </Node>
        </Node>
      </Node>
    </BinaryTree>
    <BinaryTree type="DecisionTree" boostWeight="1.0000000000000000e+00" itree="2">
      <Node pos="s" depth="0" NCoef="0" IVar="5" Cut="1.2338795471191406e+02" cType="1" res="3.6200624890625477e-04" rms="4.1531941294670105e-01" purity="5.0000000000000000e-01" nType="0">
        <Node pos="l" depth="1" NCoef="0" IVar="4" Cut="5.5789855957031250e+01" cType="1" res="5.1364038139581680e-02" rms="4.2513877153396606e-01" purity="6.6701263189315796e-01" nType="0">
          <Node pos="l" depth="2" NCoef="0" IVar="5" Cut="6.2103153228759766e+01" cType="1" res="4.0486590005457401e-03" rms="4.5861208438873291e-01" purity="5.6139951944351196e-01" nType="0">
            <Node pos="l" depth="3" NCoef="0" IVar="-1" Cut="0.0000000000000000e+00" cType="1" res="-1.0540587455034256e-01" rms="4.4870692491531372e-01" purity="2.9920965433120728e-01" nType="-99"/>
            <Node pos="r" depth="3" NCoef="0" IVar="12" Cut="2.2718428039550781e+02" cType="1" res="3.0468914657831192e-02" rms="4.5734331011772156e-01" purity="6.2801313400268555e-01" nType="0">
              <Node pos="l" depth="4" NCoef="0" IVar="-1" Cut="0.0000000000000000e+00" cType="1" res="-5.9899995103478432e-03" rms="4.6730032563209534e-01" purity="5.8681368827819824e-01" nType="-99"/>
              <Node pos="r" depth="4" NCoef="0" IVar="-1" Cut="0.0000000000000000e+00" cType="1" res="1.0111458599567413e-01" rms="4.3392321467399597e-01" purity="6.9613993167877197e-01" nType="-99"/>
            </Node>
          </Node>
          <Node pos="r" depth="2" NCoef="0" IVar="0" Cut="2.0825663757324219e+02" cType="1" res="1.0869156569242477e-01" rms="3.7269598245620728e-01" purity="7.9497390985488892e-01" nType="0">
            <Node pos="l" depth="3" NCoef="0" IVar="-1" Cut="0.0000000000000000e+00" cType="1" res="1.0541291534900665e-01" rms="3.9449346065521240e-01" purity="7.5613909959793091e-01" nType="-99"/>
            <Node pos="r" depth="3" NCoef="0" IVar="-1" Cut="0.0000000000000000e+00" cType="1" res="1.8551395833492279e-01" rms="3.3429706096649170e-01" purity="8.5310935974121094e-01" nType="-99"/>
          </Node>
        </Node>
        <Node pos="r" depth="1" NCoef="0" IVar="0" Cut="2.4505030822753906e+02" cType="1" res="-9.6388474106788635e-02" rms="3.7754422426223755e-01" purity="1.8317833542823792e-01" nType="0">
          <Node pos="l" depth="2" NCoef="0" IVar="10" Cut="4.0099010467529297e+00" cType="1" res="-1.1020293086767197e-01" rms="3.5997319221496582e-01" purity="1.5950720012187958e-01" nType="0">
            <Node pos="l" depth="3" NCoef="0" IVar="-1" Cut="0.0000000000000000e+00" cType="1" res="-7.6056860387325287e-02" rms="4.2081847786903381e-01" purity="2.3526751995086670e-01" nType="-99"/>
            <Node pos="r" depth="3" NCoef="0" IVar="6" Cut="2.1034510135650635e+00" cType="1" res="-1.2262033671140671e-01" rms="3.4104269742965698e-01" purity="1.3952259719371796e-01" nType="0">
              <Node pos="l" depth="4" NCoef="0" IVar="-1" Cut="0.0000000000000000e+00" cType="1" res="-1.2059242278337479e-01" rms="3.8915100693702698e-01" purity="1.9176907837390900e-01" nType="-99"/>
              <Node pos="r" depth="4" NCoef="0" IVar="-1" Cut="0.0000000000000000e+00" cType="1" res="-1.9162918627262115e-01" rms="3.0111578106880188e-01" purity="1.0253131389617920e-01" nType="-99"/>
            </Node>
          </Node>
          <Node pos="r" depth="2" NCoef="0" IVar="-1" Cut="0.0000000000000000e+00" cType="1" res="-1.9588179886341095e-02" rms="4.5768415927886963e-01" purity="3.1890308856964111e-01" nType="-99"/>
        </Node>
      </Node>
    </BinaryTree>
    <BinaryTree type="DecisionTree" boostWeight="1.0000000000000000e+00" itree="3">
      <Node pos="s" depth="0" NCoef="0" IVar="5" Cut="1.0362497711181641e+02" cType="1" res="-1.3518678315449506e-04" rms="4.0752878785133362e-01" purity="5.0000000000000000e-01" nType="0">
        <Node pos="l" depth="1" NCoef="0" IVar="5" Cut="7.6935165405273438e+01" cType="1" res="4.0286559611558914e-02" rms="4.0960976481437683e-01" purity="6.9763225317001343e-01" nType="0">
          <Node pos="l" depth="2" NCoef="0" IVar="12" Cut="1.2708414459228516e+02" cType="1" res="-1.6906687989830971e-02" rms="4.6521344780921936e-01" purity="4.7800874710083008e-01" nType="0">
            <Node pos="l" depth="3" NCoef="0" IVar="-1" Cut="0.0000000000000000e+00" cType="1" res="6.5195128321647644e-02" rms="4.7444108128547668e-01" purity="5.6416690349578857e-01" nType="-99"/>
            <Node pos="r" depth="3" NCoef="0" IVar="5" Cut="6.2788406372070312e+01" cType="1" res="-5.4258510470390320e-02" rms="4.5602858066558838e-01" purity="4.3672594428062439e-01" nType="0">
              <Node pos="l" depth="4" NCoef="0" IVar="-1" Cut="0.0000000000000000e+00" cType="1" res="-1.0894856601953506e-01" rms="4.2954927682876587e-01" purity="2.5645443797111511e-01" nType="-99"/>
              <Node pos="r" depth="4" NCoef="0" IVar="-1" Cut="0.0000000000000000e+00" cType="1" res="-1.8322555348277092e-02" rms="4.7464632987976074e-01" purity="5.9349888563156128e-01" nType="-99"/>
            </Node>
          </Node>
          <Node pos="r" depth="2" NCoef="0" IVar="6" Cut="1.0767165422439575e+00" cType="1" res="7.0035062730312347e-02" rms="3.7402191758155823e-01" purity="8.1186729669570923e-01" nType="0">
            <Node pos="l" depth="3" NCoef="0" IVar="-1" Cut="0.0000000000000000e+00" cType="1" res="1.5186871588230133e-01" rms="3.0782067775726318e-01" purity="8.9175224304199219e-01" nType="-99"/>
            <Node pos="r" depth="3" NCoef="0" IVar="-1" Cut="0.0000000000000000e+00" cType="1" res="3.5949215292930603e-02" rms="4.4597184658050537e-01" purity="7.0268797874450684e-01" nType="-99"/>
          </Node>
        </Node>
        <Node pos="r" depth="1" NCoef="0" IVar="1" Cut="6.4308160400390625e+02" cType="1" res="-4.8672195523977280e-02" rms="3.9964994788169861e-01" purity="2.6269015669822693e-01" nType="0">
          <Node pos="l" depth="2" NCoef="0" IVar="2" Cut="2.8619210720062256e+00" cType="1" res="-5.9287853538990021e-02" rms="3.9118719100952148e-01" purity="2.4190397560596466e-01" nType="0">
            <Node pos="l" depth="3" NCoef="0" IVar="-1" Cut="0.0000000000000000e+00" cType="1" res="-1.2450673431158066e-01" rms="3.6668759584426880e-01" purity="1.8937319517135620e-01" nType="-99"/>
            <Node pos="r" depth="3" NCoef="0" IVar="8" Cut="1.2714356422424316e+01" cType="1" res="-4.4554457068443298e-02" rms="4.0193927288055420e-01" purity="2.6788607239723206e-01" nType="0">
              <Node pos="l" depth="4" NCoef="0" IVar="-1" Cut="0.0000000000000000e+00" cType="1" res="-3.6433115601539612e-02" rms="4.0945184230804443e-01" purity="2.9063481092453003e-01" nType="-99"/>
              <Node pos="r" depth="4" NCoef="0" IVar="-1" Cut="0.0000000000000000e+00" cType="1" res="-9.6375897526741028e-02" rms="3.8906487822532654e-01" purity="2.3414747416973114e-01" nType="-99"/>
            </Node>
          </Node>
          <Node pos="r" depth="2" NCoef="0" IVar="-1" Cut="0.0000000000000000e+00" cType="1" res="4.0331978350877762e-02" rms="4.5153203606605530e-01" purity="4.2350414395332336e-01" nType="-99"/>
        </Node>
      </Node>
    </BinaryTree>
    <BinaryTree type="DecisionTree" boostWeight="1.0000000000000000e+00" itree="4">
      <Node pos="s" depth="0" NCoef="0" IVar="6" Cut="1.5294630527496338e+00" cType="1" res="2.8881034813821316e-04" rms="4.0337821841239929e-01" purity="5.0000000000000000e-01" nType="0">
        <Node pos="l" depth="1" NCoef="0" IVar="2" Cut="2.9132297039031982e+00" cType="1" res="2.1909646689891815e-02" rms="4.1115224361419678e-01" purity="6.7032456398010254e-01" nType="0">
          <Node pos="l" depth="2" NCoef="0" IVar="12" Cut="2.3082939147949219e+02" cType="1" res="-1.8744666129350662e-02" rms="4.2718368768692017e-01" purity="5.8963787555694580e-01" nType="0">
            <Node pos="l" depth="3" NCoef="0" IVar="-1" Cut="0.0000000000000000e+00" cType="1" res="-8.9617624878883362e-02" rms="4.4881913065910339e-01" purity="4.8460984230041504e-01" nType="-99"/>
            <Node pos="r" depth="3" NCoef="0" IVar="-1" Cut="0.0000000000000000e+00" cType="1" res="3.8475740700960159e-02" rms="4.0202373266220093e-01" purity="6.7892777919769287e-01" nType="-99"/>
          </Node>
          <Node pos="r" depth="2" NCoef="0" IVar="8" Cut="1.8163366317749023e+01" cType="1" res="4.2810898274183273e-02" rms="4.0106096863746643e-01" purity="7.1180731058120728e-01" nType="0">
            <Node pos="l" depth="3" NCoef="0" IVar="5" Cut="1.0362497711181641e+02" cType="1" res="5.3781948983669281e-02" rms="3.9498463273048401e-01" purity="7.2634124755859375e-01" nType="0">
              <Node pos="l" depth="4" NCoef="0" IVar="-1" Cut="0.0000000000000000e+00" cType="1" res="8.6647778749465942e-02" rms="3.7762945890426636e-01" purity="7.7001583576202393e-01" nType="-99"/>
              <Node pos="r" depth="4" NCoef="0" IVar="-1" Cut="0.0000000000000000e+00" cType="1" res="2.4875028058886528e-02" rms="4.6016833186149597e-01" purity="5.4061138629913330e-01" nType="-99"/>
            </Node>
            <Node pos="r" depth="3" NCoef="0" IVar="-1" Cut="0.0000000000000000e+00" cType="1" res="-2.6352429762482643e-02" rms="4.2875483632087708e-01" purity="6.2893646955490112e-01" nType="-99"/>
          </Node>
        </Node>
        <Node pos="r" depth="1" NCoef="0" IVar="9" Cut="4.0099010467529297e+00" cType="1" res="-3.4343231469392776e-02" rms="3.8810178637504578e-01" purity="2.2717583179473877e-01" nType="0">
          <Node pos="l" depth="2" NCoef="0" IVar="-1" Cut="0.0000000000000000e+00" cType="1" res="1.8279580399394035e-02" rms="4.4095805287361145e-01" purity="2.9455724358558655e-01" nType="-99"/>
          <Node pos="r" depth="2" NCoef="0" IVar="0" Cut="1.8066142272949219e+02" cType="1" res="-4.7169469296932220e-02" rms="3.7162813544273376e-01" purity="2.0912873744964600e-01" nType="0">
            <Node pos="l" depth="3" NCoef="0" IVar="-1" Cut="0.0000000000000000e+00" cType="1" res="-9.7325265407562256e-02" rms="3.5688373446464539e-01" purity="1.8722711503505707e-01" nType="-99"/>
            <Node pos="r" depth="3" NCoef="0" IVar="6" Cut="2.1667993068695068e+00" cType="1" res="-2.8717584908008575e-02" rms="3.8757386803627014e-01" purity="2.3509247601032257e-01" nType="0">
              <Node pos="l" depth="4" NCoef="0" IVar="-1" Cut="0.0000000000000000e+00" cType="1" res="-1.3069990091025829e-02" rms="4.2093116044998169e-01" purity="3.0979886651039124e-01" nType="-99"/>
              <Node pos="r" depth="4" NCoef="0" IVar="-1" Cut="0.0000000000000000e+00" cType="1" res="-7.6228223741054535e-02" rms="3.5026332736015320e-01" purity="1.6079241037368774e-01" nType="-99"/>
            </Node>
          </Node>
        </Node>
      </Node>
    </BinaryTree>
    <BinaryTree type="DecisionTree" boostWeight="1.0000000000000000e+00" itree="5">
      <Node pos="s" depth="0" NCoef="0" IVar="0" Cut="1.9292594909667969e+02" cType="1" res="1.5565294597763568e-04" rms="4.0109476447105408e-01" purity="5.0000000000000000e-01" nType="0">
        <Node pos="l" depth="1" NCoef="0" IVar="2" Cut="2.8619210720062256e+00" cType="1" res="-1.5172136016190052e-02" rms="4.0318048000335693e-01" purity="4.4168305397033691e-01" nType="0">
          <Node pos="l" depth="2" NCoef="0" IVar="8" Cut="1.2351088523864746e+01" cType="1" res="-4.4344022870063782e-02" rms="4.0321692824363708e-01" purity="3.5368859767913818e-01" nType="0">
            <Node pos="l" depth="3" NCoef="0" IVar="-1" Cut="0.0000000000000000e+00" cType="1" res="-3.5523857921361923e-02" rms="4.0689539909362793e-01" purity="3.8390296697616577e-01" nType="-99"/>
            <Node pos="r" depth="3" NCoef="0" IVar="-1" Cut="0.0000000000000000e+00" cType="1" res="-9.9919080734252930e-02" rms="3.9697146415710449e-01" purity="3.1431040167808533e-01" nType="-99"/>
          </Node>
          <Node pos="r" depth="2" NCoef="0" IVar="5" Cut="1.3937448120117188e+02" cType="1" res="5.5046193301677704e-04" rms="4.0228447318077087e-01" purity="4.8910892009735107e-01" nType="0">
            <Node pos="l" depth="3" NCoef="0" IVar="8" Cut="1.0171484947204590e+01" cType="1" res="1.3484190218150616e-02" rms="4.2366287112236023e-01" purity="6.2678515911102295e-01" nType="0">
              <Node pos="l" depth="4" NCoef="0" IVar="-1" Cut="0.0000000000000000e+00" cType="1" res="4.6644650399684906e-02" rms="4.1500306129455566e-01" purity="6.6528898477554321e-01" nType="-99"/>
              <Node pos="r" depth="4" NCoef="0" IVar="-1" Cut="0.0000000000000000e+00" cType="1" res="-1.3503604568541050e-02" rms="4.3167382478713989e-01" purity="5.8467483520507812e-01" nType="-99"/>
            </Node>
            <Node pos="r" depth="3" NCoef="0" IVar="5" Cut="2.0234111022949219e+02" cType="1" res="-3.2421424984931946e-02" rms="3.3956620097160339e-01" purity="1.3813163340091705e-01" nType="0">
              <Node pos="l" depth="4" NCoef="0" IVar="-1" Cut="0.0000000000000000e+00" cType="1" res="-7.2853557765483856e-02" rms="3.3996856212615967e-01" purity="1.3792909681797028e-01" nType="-99"/>
              <Node pos="r" depth="4" NCoef="0" IVar="-1" Cut="0.0000000000000000e+00" cType="1" res="-4.1179385036230087e-02" rms="3.3881589770317078e-01" purity="1.3834920525550842e-01" nType="-99"/>
            </Node>
          </Node>
        </Node>
        <Node pos="r" depth="1" NCoef="0" IVar="0" Cut="3.1705902099609375e+02" cType="1" res="2.1234333515167236e-02" rms="3.9724394679069519e-01" purity="5.8019703626632690e-01" nType="0">
          <Node pos="l" depth="2" NCoef="0" IVar="5" Cut="1.3524574279785156e+02" cType="1" res="1.3897047378122807e-02" rms="3.9714547991752625e-01" purity="5.6304275989532471e-01" nType="0">
            <Node pos="l" depth="3" NCoef="0" IVar="12" Cut="1.9782647705078125e+02" cType="1" res="2.7560126036405563e-02" rms="3.9620894193649292e-01" purity="7.0854628086090088e-01" nType="0">
              <Node pos="l" depth="4" NCoef="0" IVar="-1" Cut="0.0000000000000000e+00" cType="1" res="1.6107375267893076e-03" rms="4.2344686388969421e-01" purity="6.5728384256362915e-01" nType="-99"/>
              <Node pos="r" depth="4" NCoef="0" IVar="-1" Cut="0.0000000000000000e+00" cType="1" res="7.2205260396003723e-02" rms="3.7213087081909180e-01" purity="7.4878633022308350e-01" nType="-99"/>
            </Node>
            <Node pos="r" depth="3" NCoef="0" IVar="3" Cut="1.7500787353515625e+02" cType="1" res="-1.9372362643480301e-02" rms="3.9745733141899109e-01" purity="2.0874361693859100e-01" nType="0">
              <Node pos="l" depth="4" NCoef="0" IVar="-1" Cut="0.0000000000000000e+00" cType="1" res="3.4384184982627630e-04" rms="4.0014389157295227e-01" purity="2.1032845973968506e-01" nType="-99"/>
              <Node pos="r" depth="4" NCoef="0" IVar="-1" Cut="0.0000000000000000e+00" cType="1" res="-5.1663152873516083e-02" rms="3.9425954222679138e-01" purity="2.0734354853630066e-01" nType="-99"/>
            </Node>
          </Node>
          <Node pos="r" depth="2" NCoef="0" IVar="-1" Cut="0.0000000000000000e+00" cType="1" res="1.0590264201164246e-01" rms="3.9384451508522034e-01" purity="7.0538723468780518e-01" nType="-99"/>
        </Node>
      </Node>
    </BinaryTree>
    <BinaryTree type="DecisionTree" boostWeight="1.0000000000000000e+00" itree="6">
      <Node pos="s" depth="0" NCoef="0" IVar="8" Cut="1.9616434097290039e+01" cType="1" res="6.2913764850236475e-05" rms="3.9968606829643250e-01" purity="5.0000000000000000e-01" nType="0">
        <Node pos="l" depth="1" NCoef="0" IVar="5" Cut="5.6193832397460938e+01" cType="1" res="5.9623727574944496e-03" rms="3.9901953935623169e-01" purity="5.1766180992126465e-01" nType="0">
          <Node pos="l" depth="2" NCoef="0" IVar="-1" Cut="0.0000000000000000e+00" cType="1" res="-4.5492719858884811e-02" rms="4.4914475083351135e-01" purity="3.1428319215774536e-01" nType="-99"/>
          <Node pos="r" depth="2" NCoef="0" IVar="5" Cut="1.0249008941650391e+02" cType="1" res="9.3624657019972801e-03" rms="3.9480754733085632e-01" purity="5.3286153078079224e-01" nType="0">
            <Node pos="l" depth="3" NCoef="0" IVar="5" Cut="8.1863037109375000e+01" cType="1" res="2.3917587473988533e-02" rms="3.8960289955139160e-01" purity="7.6651120185852051e-01" nType="0">
              <Node pos="l" depth="4" NCoef="0" IVar="-1" Cut="0.0000000000000000e+00" cType="1" res="-1.5358837554231286e-03" rms="4.4465205073356628e-01" purity="6.5126603841781616e-01" nType="-99"/>
              <Node pos="r" depth="4" NCoef="0" IVar="-1" Cut="0.0000000000000000e+00" cType="1" res="6.3838183879852295e-02" rms="3.5304415225982666e-01" purity="8.3319211006164551e-01" nType="-99"/>
            </Node>
            <Node pos="r" depth="3" NCoef="0" IVar="9" Cut="4.0099010467529297e+00" cType="1" res="-5.9671401977539062e-03" rms="3.9964321255683899e-01" purity="2.8677922487258911e-01" nType="0">
              <Node pos="l" depth="4" NCoef="0" IVar="-1" Cut="0.0000000000000000e+00" cType="1" res="2.8116142377257347e-02" rms="4.4702032208442688e-01" purity="3.4464177489280701e-01" nType="-99"/>
              <Node pos="r" depth="4" NCoef="0" IVar="-1" Cut="0.0000000000000000e+00" cType="1" res="-2.1126464009284973e-02" rms="3.8529384136199951e-01" purity="2.7089998126029968e-01" nType="-99"/>
            </Node>
          </Node>
        </Node>
        <Node pos="r" depth="1" NCoef="0" IVar="12" Cut="2.1869584655761719e+02" cType="1" res="-3.3730581402778625e-02" rms="4.0181723237037659e-01" purity="3.9882883429527283e-01" nType="0">
          <Node pos="l" depth="2" NCoef="0" IVar="-1" Cut="0.0000000000000000e+00" cType="1" res="-9.1976121068000793e-02" rms="4.2817646265029907e-01" purity="4.2369031906127930e-01" nType="-99"/>
          <Node pos="r" depth="2" NCoef="0" IVar="-1" Cut="0.0000000000000000e+00" cType="1" res="-1.2298115529119968e-02" rms="3.8012489676475525e-01" purity="3.8141888380050659e-01" nType="-99"/>
        </Node>
      </Node>
    </BinaryTree>
    <BinaryTree type="DecisionTree" boostWeight="1.0000000000000000e+00" itree="7">
      <Node pos="s" depth="0" NCoef="0" IVar="12" Cut="1.1620139312744141e+02" cType="1" res="1.5258087660185993e-04" rms="3.9891260862350464e-01" purity="5.0000000000000000e-01" nType="0">
        <Node pos="l" depth="1" NCoef="0" IVar="-1" Cut="0.0000000000000000e+00" cType="1" res="6.6628776490688324e-02" rms="4.2746749520301819e-01" purity="6.8795174360275269e-01" nType="-99"/>
        <Node pos="r" depth="1" NCoef="0" IVar="12" Cut="2.1748643493652344e+02" cType="1" res="-4.4315299019217491e-03" rms="3.9602917432785034e-01" purity="4.8385936021804810e-01" nType="0">
          <Node pos="l" depth="2" NCoef="0" IVar="11" Cut="3.2518817901611328e+01" cType="1" res="-2.1513096988201141e-02" rms="4.2335748672485352e-01" purity="5.2231657505035400e-01" nType="0">
            <Node pos="l" depth="3" NCoef="0" IVar="-1" Cut="0.0000000000000000e+00" cType="1" res="2.7475485578179359e-02" rms="3.9676633477210999e-01" purity="6.3598293066024780e-01" nType="-99"/>
            <Node pos="r" depth="3" NCoef="0" IVar="4" Cut="3.7819831848144531e+01" cType="1" res="-4.2648095637559891e-02" rms="4.3541687726974487e-01" purity="4.6164783835411072e-01" nType="0">
              <Node pos="l" depth="4" NCoef="0" IVar="-1" Cut="0.0000000000000000e+00" cType="1" res="-9.4661064445972443e-02" rms="4.4466975331306458e-01" purity="3.4274175763130188e-01" nType="-99"/>
              <Node pos="r" depth="4" NCoef="0" IVar="-1" Cut="0.0000000000000000e+00" cType="1" res="-3.9774730801582336e-02" rms="4.3105578422546387e-01" purity="5.0699931383132935e-01" nType="-99"/>
            </Node>
          </Node>
          <Node pos="r" depth="2" NCoef="0" IVar="6" Cut="1.9420973062515259e+00" cType="1" res="6.3560539856553078e-03" rms="3.7735512852668762e-01" purity="4.5957231521606445e-01" nType="0">
            <Node pos="l" depth="3" NCoef="0" IVar="5" Cut="8.0617340087890625e+01" cType="1" res="2.0225614309310913e-02" rms="3.9275836944580078e-01" purity="6.4339441061019897e-01" nType="0">
              <Node pos="l" depth="4" NCoef="0" IVar="-1" Cut="0.0000000000000000e+00" cType="1" res="-1.8307613208889961e-02" rms="4.4146227836608887e-01" purity="5.5031162500381470e-01" nType="-99"/>
              <Node pos="r" depth="4" NCoef="0" IVar="-1" Cut="0.0000000000000000e+00" cType="1" res="4.7217816114425659e-02" rms="3.7813356518745422e-01" purity="6.6827803850173950e-01" nType="-99"/>
            </Node>
            <Node pos="r" depth="3" NCoef="0" IVar="7" Cut="2.2927725315093994e+00" cType="1" res="-1.6160789877176285e-02" rms="3.4974211454391479e-01" purity="1.6114239394664764e-01" nType="0">
              <Node pos="l" depth="4" NCoef="0" IVar="-1" Cut="0.0000000000000000e+00" cType="1" res="-4.7247704118490219e-02" rms="3.4217697381973267e-01" purity="1.5659689903259277e-01" nType="-99"/>
              <Node pos="r" depth="4" NCoef="0" IVar="-1" Cut="0.0000000000000000e+00" cType="1" res="2.9133543372154236e-02" rms="3.7149381637573242e-01" purity="1.7588663101196289e-01" nType="-99"/>
            </Node>
          </Node>
        </Node>
      </Node>
    </BinaryTree>
    <BinaryTree type="DecisionTree" boostWeight="1.0000000000000000e+00" itree="8">
      <Node pos="s" depth="0" NCoef="0" IVar="2" Cut="2.6235673427581787e+00" cType="1" res="5.7783086958806962e-05" rms="3.9783912897109985e-01" purity="5.0000000000000000e-01" nType="0">
        <Node pos="l" depth="1" NCoef="0" IVar="-1" Cut="0.0000000000000000e+00" cType="1" res="-4.1005030274391174e-02" rms="3.9857187867164612e-01" purity="3.8556087017059326e-01" nType="-99"/>
        <Node pos="r" depth="1" NCoef="0" IVar="4" Cut="7.2377571105957031e+01" cType="1" res="4.1371891275048256e-03" rms="3.9756816625595093e-01" purity="5.1689374446868896e-01" nType="0">
          <Node pos="l" depth="2" NCoef="0" IVar="12" Cut="1.1620139312744141e+02" cType="1" res="-9.7067496972158551e-04" rms="4.0933337807655334e-01" purity="4.8158845305442810e-01" nType="0">
            <Node pos="l" depth="3" NCoef="0" IVar="-1" Cut="0.0000000000000000e+00" cType="1" res="3.7844713777303696e-02" rms="4.3487331271171570e-01" purity="6.7285084724426270e-01" nType="-99"/>
            <Node pos="r" depth="3" NCoef="0" IVar="5" Cut="7.6717231750488281e+01" cType="1" res="-4.8669208772480488e-03" rms="4.0589508414268494e-01" purity="4.5794790983200073e-01" nType="0">
              <Node pos="l" depth="4" NCoef="0" IVar="-1" Cut="0.0000000000000000e+00" cType="1" res="-3.1770545989274979e-02" rms="4.5830741524696350e-01" purity="4.2175579071044922e-01" nType="-99"/>
              <Node pos="r" depth="4" NCoef="0" IVar="-1" Cut="0.0000000000000000e+00" cType="1" res="-8.4273004904389381e-04" rms="3.9473539590835571e-01" purity="4.6499532461166382e-01" nType="-99"/>
            </Node>
          </Node>
          <Node pos="r" depth="2" NCoef="0" IVar="6" Cut="8.6767899990081787e-01" cType="1" res="1.7077792435884476e-02" rms="3.6575365066528320e-01" purity="6.0633856058120728e-01" nType="0">
            <Node pos="l" depth="3" NCoef="0" IVar="-1" Cut="0.0000000000000000e+00" cType="1" res="6.0382585972547531e-02" rms="3.2515975832939148e-01" purity="8.4913384914398193e-01" nType="-99"/>
            <Node pos="r" depth="3" NCoef="0" IVar="6" Cut="1.4858255386352539e+00" cType="1" res="6.2549845315515995e-03" rms="3.9351356029510498e-01" purity="4.2153209447860718e-01" nType="0">
              <Node pos="l" depth="4" NCoef="0" IVar="-1" Cut="0.0000000000000000e+00" cType="1" res="-1.5589545480906963e-02" rms="3.9898794889450073e-01" purity="6.5274536609649658e-01" nType="-99"/>
              <Node pos="r" depth="4" NCoef="0" IVar="-1" Cut="0.0000000000000000e+00" cType="1" res="3.9331819862127304e-02" rms="3.8755995035171509e-01" purity="2.0156545937061310e-01" nType="-99"/>
            </Node>
          </Node>
        </Node>
      </Node>
    </BinaryTree>
    <BinaryTree type="DecisionTree" boostWeight="1.0000000000000000e+00" itree="9">
      <Node pos="s" depth="0" NCoef="0" IVar="0" Cut="1.7759526062011719e+02" cType="1" res="5.9386144130257890e-05" rms="3.9746502041816711e-01" purity="5.0000000000000000e-01" nType="0">
        <Node pos="l" depth="1" NCoef="0" IVar="5" Cut="6.4745010375976562e+01" cType="1" res="-1.0446993634104729e-02" rms="3.9932718873023987e-01" purity="4.2794647812843323e-01" nType="0">
          <Node pos="l" depth="2" NCoef="0" IVar="-1" Cut="0.0000000000000000e+00" cType="1" res="-5.0780761986970901e-02" rms="4.4273605942726135e-01" purity="3.1290698051452637e-01" nType="-99"/>
          <Node pos="r" depth="2" NCoef="0" IVar="11" Cut="5.0045154571533203e+01" cType="1" res="-6.0632033273577690e-03" rms="3.9275678992271423e-01" purity="4.4382688403129578e-01" nType="0">
            <Node pos="l" depth="3" NCoef="0" IVar="5" Cut="1.3775334167480469e+02" cType="1" res="6.9790100678801537e-03" rms="3.8610580563545227e-01" purity="5.0793206691741943e-01" nType="0">
              <Node pos="l" depth="4" NCoef="0" IVar="-1" Cut="0.0000000000000000e+00" cType="1" res="2.7104750275611877e-02" rms="4.0887501835823059e-01" purity="6.9115298986434937e-01" nType="-99"/>
              <Node pos="r" depth="4" NCoef="0" IVar="-1" Cut="0.0000000000000000e+00" cType="1" res="-3.4362409263849258e-02" rms="3.3322352170944214e-01" purity="1.3158582150936127e-01" nType="-99"/>
            </Node>
            <Node pos="r" depth="3" NCoef="0" IVar="-1" Cut="0.0000000000000000e+00" cType="1" res="-3.2903064042329788e-02" rms="3.9998781681060791e-01" purity="3.6738535761833191e-01" nType="-99"/>
          </Node>
        </Node>
        <Node pos="r" depth="1" NCoef="0" IVar="3" Cut="8.9014778137207031e+01" cType="1" res="7.7993376180529594e-03" rms="3.9590924978256226e-01" purity="5.5308115482330322e-01" nType="0">
          <Node pos="l" depth="2" NCoef="0" IVar="-1" Cut="0.0000000000000000e+00" cType="1" res="4.3410036712884903e-02" rms="4.4333338737487793e-01" purity="5.1398169994354248e-01" nType="-99"/>
          <Node pos="r" depth="2" NCoef="0" IVar="7" Cut="6.6297066211700439e-01" cType="1" res="4.2223930358886719e-03" rms="3.8890606164932251e-01" purity="5.5837517976760864e-01" nType="0">
            <Node pos="l" depth="3" NCoef="0" IVar="4" Cut="4.0584449768066406e+01" cType="1" res="1.2631637044250965e-02" rms="3.8018122315406799e-01" purity="6.6461509466171265e-01" nType="0">
              <Node pos="l" depth="4" NCoef="0" IVar="-1" Cut="0.0000000000000000e+00" cType="1" res="-1.2695226818323135e-02" rms="4.3958577513694763e-01" purity="5.0851923227310181e-01" nType="-99"/>
              <Node pos="r" depth="4" NCoef="0" IVar="-1" Cut="0.0000000000000000e+00" cType="1" res="2.9749784618616104e-02" rms="3.6618950963020325e-01" purity="6.9766873121261597e-01" nType="-99"/>
            </Node>
            <Node pos="r" depth="3" NCoef="0" IVar="8" Cut="1.3804158210754395e+01" cType="1" res="-6.8112616427242756e-03" rms="3.9979708194732666e-01" purity="4.1897916793823242e-01" nType="0">
              <Node pos="l" depth="4" NCoef="0" IVar="-1" Cut="0.0000000000000000e+00" cType="1" res="2.5104493834078312e-03" rms="4.0146023035049438e-01" purity="4.5028564333915710e-01" nType="-99"/>
              <Node pos="r" depth="4" NCoef="0" IVar="-1" Cut="0.0000000000000000e+00" cType="1" res="-3.6217745393514633e-02" rms="3.9600250124931335e-01" purity="3.5770127177238464e-01" nType="-99"/>
            </Node>
          </Node>
        </Node>
      </Node>
    </BinaryTree>
    <BinaryTree type="DecisionTree" boostWeight="1.0000000000000000e+00" itree="10">
      <Node pos="s" depth="0" NCoef="0" IVar="8" Cut="2.5428712844848633e+01" cType="1" res="1.2787174455297645e-05" rms="3.9704689383506775e-01" purity="5.0000000000000000e-01" nType="0">
        <Node pos="l" depth="1" NCoef="0" IVar="11" Cut="1.6021069335937500e+02" cType="1" res="2.0760626066476107e-03" rms="3.9692324399948120e-01" purity="5.0922369956970215e-01" nType="0">
          <Node pos="l" depth="2" NCoef="0" IVar="2" Cut="2.6831557750701904e+00" cType="1" res="4.2941930587403476e-04" rms="3.9579176902770996e-01" purity="5.0581079721450806e-01" nType="0">
            <Node pos="l" depth="3" NCoef="0" IVar="-1" Cut="0.0000000000000000e+00" cType="1" res="-2.7688061818480492e-02" rms="3.9837530255317688e-01" purity="3.4743177890777588e-01" nType="-99"/>
            <Node pos="r" depth="3" NCoef="0" IVar="12" Cut="5.6239422607421875e+02" cType="1" res="3.1509823165833950e-03" rms="3.9533630013465881e-01" purity="5.2917915582656860e-01" nType="0">
              <Node pos="l" depth="4" NCoef="0" IVar="-1" Cut="0.0000000000000000e+00" cType="1" res="7.8584281727671623e-03" rms="3.9694556593894958e-01" purity="5.3493630886077881e-01" nType="-99"/>
              <Node pos="r" depth="4" NCoef="0" IVar="-1" Cut="0.0000000000000000e+00" cType="1" res="-3.3833585679531097e-02" rms="3.7469419836997986e-01" purity="4.6002572774887085e-01" nType="-99"/>
            </Node>
          </Node>
          <Node pos="r" depth="2" NCoef="0" IVar="-1" Cut="0.0000000000000000e+00" cType="1" res="4.2626645416021347e-02" rms="4.1501444578170776e-01" purity="5.6839466094970703e-01" nType="-99"/>
        </Node>
        <Node pos="r" depth="1" NCoef="0" IVar="-1" Cut="0.0000000000000000e+00" cType="1" res="-4.5351378619670868e-02" rms="3.9763537049293518e-01" purity="3.6653143167495728e-01" nType="-99"/>
      </Node>
    </BinaryTree>
    <BinaryTree type="DecisionTree" boostWeight="1.0000000000000000e+00" itree="11">
      <Node pos="s" depth="0" NCoef="0" IVar="5" Cut="5.2241237640380859e+01" cType="1" res="-5.3667054089601152e-06" rms="3.9683678746223450e-01" purity="5.0000000000000000e-01" nType="0">
        <Node pos="l" depth="1" NCoef="0" IVar="-1" Cut="0.0000000000000000e+00" cType="1" res="-3.4323856234550476e-02" rms="4.3736934661865234e-01" purity="2.8709125518798828e-01" nType="-99"/>
        <Node pos="r" depth="1" NCoef="0" IVar="7" Cut="6.9059443473815918e-01" cType="1" res="1.5279513318091631e-03" rms="3.9437526464462280e-01" purity="5.1198571920394897e-01" nType="0">
          <Node pos="l" depth="2" NCoef="0" IVar="5" Cut="9.9046241760253906e+01" cType="1" res="8.7147010490298271e-03" rms="3.9136731624603271e-01" purity="6.2825673818588257e-01" nType="0">
            <Node pos="l" depth="3" NCoef="0" IVar="12" Cut="1.9813191223144531e+02" cType="1" res="1.8543353304266930e-02" rms="3.8318246603012085e-01" purity="7.5583696365356445e-01" nType="0">
              <Node pos="l" depth="4" NCoef="0" IVar="-1" Cut="0.0000000000000000e+00" cType="1" res="6.1380513943731785e-03" rms="4.1451847553253174e-01" purity="7.0293092727661133e-01" nType="-99"/>
              <Node pos="r" depth="4" NCoef="0" IVar="-1" Cut="0.0000000000000000e+00" cType="1" res="5.4343573749065399e-02" rms="3.5274425148963928e-01" purity="8.0253034830093384e-01" nType="-99"/>
            </Node>
            <Node pos="r" depth="3" NCoef="0" IVar="12" Cut="2.9955075073242188e+02" cType="1" res="-7.6422845013439655e-03" rms="4.0409216284751892e-01" purity="4.1593587398529053e-01" nType="0">
              <Node pos="l" depth="4" NCoef="0" IVar="-1" Cut="0.0000000000000000e+00" cType="1" res="-2.6275245472788811e-02" rms="4.0485075116157532e-01" purity="3.9436274766921997e-01" nType="-99"/>
              <Node pos="r" depth="4" NCoef="0" IVar="-1" Cut="0.0000000000000000e+00" cType="1" res="1.8612837418913841e-02" rms="4.0185472369194031e-01" purity="4.5854407548904419e-01" nType="-99"/>
            </Node>
          </Node>
          <Node pos="r" depth="2" NCoef="0" IVar="10" Cut="4.0099010467529297e+00" cType="1" res="-6.1097405850887299e-03" rms="3.9740458130836487e-01" purity="3.8841912150382996e-01" nType="0">
            <Node pos="l" depth="3" NCoef="0" IVar="-1" Cut="0.0000000000000000e+00" cType="1" res="2.0271209999918938e-02" rms="4.3926694989204407e-01" purity="4.1359958052635193e-01" nType="-99"/>
            <Node pos="r" depth="3" NCoef="0" IVar="11" Cut="6.7571487426757812e+01" cType="1" res="-1.1620314791798592e-02" rms="3.8505795598030090e-01" purity="3.8157591223716736e-01" nType="0">
              <Node pos="l" depth="4" NCoef="0" IVar="-1" Cut="0.0000000000000000e+00" cType="1" res="-8.2992883399128914e-03" rms="3.8184925913810730e-01" purity="4.1669183969497681e-01" nType="-99"/>
              <Node pos="r" depth="4" NCoef="0" IVar="-1" Cut="0.0000000000000000e+00" cType="1" res="-3.6219097673892975e-02" rms="3.9020481705665588e-01" purity="3.2174426317214966e-01" nType="-99"/>
            </Node>
          </Node>
        </Node>
      </Node>
    </BinaryTree>
    <BinaryTree type="DecisionTree" boostWeight="1.0000000000000000e+00" itree="12">
      <Node pos="s" depth="0" NCoef="0" IVar="8" Cut="6.5388116836547852e+00" cType="1" res="2.6338875613873824e-05" rms="3.9650735259056091e-01" purity="5.0000000000000000e-01" nType="0">
        <Node pos="l" depth="1" NCoef="0" IVar="5" Cut="1.3129313659667969e+02" cType="1" res="9.0610049664974213e-03" rms="3.8887849450111389e-01" purity="5.5658936500549316e-01" nType="0">
          <Node pos="l" depth="2" NCoef="0" IVar="5" Cut="7.9087532043457031e+01" cType="1" res="1.5372693538665771e-02" rms="3.9363068342208862e-01" purity="6.9890034198760986e-01" nType="0">
            <Node pos="l" depth="3" NCoef="0" IVar="-1" Cut="0.0000000000000000e+00" cType="1" res="-9.0520670637488365e-03" rms="4.4033029675483704e-01" purity="5.4185807704925537e-01" nType="-99"/>
            <Node pos="r" depth="3" NCoef="0" IVar="-1" Cut="0.0000000000000000e+00" cType="1" res="4.2743094265460968e-02" rms="3.7129038572311401e-01" purity="7.6653158664703369e-01" nType="-99"/>
          </Node>
          <Node pos="r" depth="2" NCoef="0" IVar="-1" Cut="0.0000000000000000e+00" cType="1" res="-1.2857106514275074e-02" rms="3.7565857172012329e-01" purity="1.8422035872936249e-01" nType="-99"/>
        </Node>
        <Node pos="r" depth="1" NCoef="0" IVar="3" Cut="7.8695617675781250e+01" cType="1" res="-3.3243212383240461e-03" rms="3.9924764633178711e-01" purity="4.7901287674903870e-01" nType="0">
          <Node pos="l" depth="2" NCoef="0" IVar="-1" Cut="0.0000000000000000e+00" cType="1" res="2.1658910438418388e-02" rms="4.4630870223045349e-01" purity="4.4818291068077087e-01" nType="-99"/>
          <Node pos="r" depth="2" NCoef="0" IVar="12" Cut="2.0326341247558594e+02" cType="1" res="-5.7822521775960922e-03" rms="3.9305993914604187e-01" purity="4.8276808857917786e-01" nType="0">
            <Node pos="l" depth="3" NCoef="0" IVar="11" Cut="5.0045154571533203e+01" cType="1" res="-1.9955189898610115e-02" rms="4.2285698652267456e-01" purity="5.5152982473373413e-01" nType="0">
              <Node pos="l" depth="4" NCoef="0" IVar="-1" Cut="0.0000000000000000e+00" cType="1" res="-1.2079047039151192e-02" rms="4.1475373506546021e-01" purity="6.1166983842849731e-01" nType="-99"/>
              <Node pos="r" depth="4" NCoef="0" IVar="-1" Cut="0.0000000000000000e+00" cType="1" res="-6.0394231230020523e-02" rms="4.3932995200157166e-01" purity="4.1682976484298706e-01" nType="-99"/>
            </Node>
            <Node pos="r" depth="3" NCoef="0" IVar="6" Cut="2.0894665718078613e+00" cType="1" res="2.2505216766148806e-03" rms="3.7488466501235962e-01" purity="4.4379609823226929e-01" nType="0">
              <Node pos="l" depth="4" NCoef="0" IVar="-1" Cut="0.0000000000000000e+00" cType="1" res="1.1950435116887093e-02" rms="3.9374068379402161e-01" purity="5.9406054019927979e-01" nType="-99"/>
              <Node pos="r" depth="4" NCoef="0" IVar="-1" Cut="0.0000000000000000e+00" cType="1" res="-1.7732553184032440e-02" rms="3.3286443352699280e-01" purity="1.3722684979438782e-01" nType="-99"/>
            </Node>
          </Node>
        </Node>
      </Node>
    </BinaryTree>
    <BinaryTree type="DecisionTree" boostWeight="1.0000000000000000e+00" itree="13">
      <Node pos="s" depth="0" NCoef="0" IVar="0" Cut="1.5613229370117188e+02" cType="1" res="2.6186580726061948e-05" rms="3.9622756838798523e-01" purity="5.0000000000000000e-01" nType="0">
        <Node pos="l" depth="1" NCoef="0" IVar="-1" Cut="0.0000000000000000e+00" cType="1" res="-2.5539303198456764e-02" rms="3.9451092481613159e-01" purity="4.0015286207199097e-01" nType="-99"/>
        <Node pos="r" depth="1" NCoef="0" IVar="6" Cut="1.2641981840133667e+00" cType="1" res="2.0198537968099117e-03" rms="3.9639115333557129e-01" purity="5.1221913099288940e-01" nType="0">
          <Node pos="l" depth="2" NCoef="0" IVar="4" Cut="3.6437522888183594e+01" cType="1" res="-3.2141683623194695e-03" rms="3.8879269361495972e-01" purity="7.0876723527908325e-01" nType="0">
            <Node pos="l" depth="3" NCoef="0" IVar="-1" Cut="0.0000000000000000e+00" cType="1" res="-4.6535786241292953e-02" rms="4.3829068541526794e-01" purity="4.7524371743202209e-01" nType="-99"/>
            <Node pos="r" depth="3" NCoef="0" IVar="10" Cut="4.0099010467529297e+00" cType="1" res="1.3580155791714787e-03" rms="3.8101658225059509e-01" purity="7.4195486307144165e-01" nType="0">
              <Node pos="l" depth="4" NCoef="0" IVar="-1" Cut="0.0000000000000000e+00" cType="1" res="-4.1793778538703918e-02" rms="4.1133075952529907e-01" purity="6.9512522220611572e-01" nType="-99"/>
              <Node pos="r" depth="4" NCoef="0" IVar="-1" Cut="0.0000000000000000e+00" cType="1" res="1.1984928511083126e-02" rms="3.7407571077346802e-01" purity="7.5180470943450928e-01" nType="-99"/>
            </Node>
          </Node>
          <Node pos="r" depth="2" NCoef="0" IVar="10" Cut="4.0099010467529297e+00" cType="1" res="7.7572977170348167e-03" rms="4.0447875857353210e-01" purity="2.9676648974418640e-01" nType="0">
            <Node pos="l" depth="3" NCoef="0" IVar="-1" Cut="0.0000000000000000e+00" cType="1" res="4.1259683668613434e-02" rms="4.4506087899208069e-01" purity="3.5449764132499695e-01" nType="-99"/>
            <Node pos="r" depth="3" NCoef="0" IVar="5" Cut="1.4286776733398438e+02" cType="1" res="1.5275105834007263e-03" rms="3.9228311181068420e-01" purity="2.8079497814178467e-01" nType="0">
              <Node pos="l" depth="4" NCoef="0" IVar="-1" Cut="0.0000000000000000e+00" cType="1" res="2.1353891119360924e-02" rms="4.4728159904479980e-01" purity="4.5490682125091553e-01" nType="-99"/>
              <Node pos="r" depth="4" NCoef="0" IVar="-1" Cut="0.0000000000000000e+00" cType="1" res="-2.0426869392395020e-02" rms="3.4369841217994690e-01" purity="1.4718225598335266e-01" nType="-99"/>
            </Node>
          </Node>
        </Node>
      </Node>
    </BinaryTree>
    <BinaryTree type="DecisionTree" boostWeight="1.0000000000000000e+00" itree="14">
      <Node pos="s" depth="0" NCoef="0" IVar="12" Cut="1.1620139312744141e+02" cType="1" res="-2.4717974156374112e-06" rms="3.9593982696533203e-01" purity="5.0000000000000000e-01" nType="0">
        <Node pos="l" depth="1" NCoef="0" IVar="-1" Cut="0.0000000000000000e+00" cType="1" res="2.8219327330589294e-02" rms="4.2610183358192444e-01" purity="6.8795174360275269e-01" nType="-99"/>
        <Node pos="r" depth="1" NCoef="0" IVar="0" Cut="2.9104238891601562e+02" cType="1" res="-1.8267289269715548e-03" rms="3.9318823814392090e-01" purity="4.8385936021804810e-01" nType="0">
          <Node pos="l" depth="2" NCoef="0" IVar="7" Cut="2.2099010944366455e+00" cType="1" res="-3.5547527950257063e-03" rms="3.9375829696655273e-01" purity="4.6581727266311646e-01" nType="0">
            <Node pos="l" depth="3" NCoef="0" IVar="11" Cut="4.0030105590820312e+01" cType="1" res="-5.1285978406667709e-03" rms="3.9574760198593140e-01" purity="4.8650124669075012e-01" nType="0">
              <Node pos="l" depth="4" NCoef="0" IVar="-1" Cut="0.0000000000000000e+00" cType="1" res="7.4741160497069359e-03" rms="3.8455909490585327e-01" purity="5.6266170740127563e-01" nType="-99"/>
              <Node pos="r" depth="4" NCoef="0" IVar="-1" Cut="0.0000000000000000e+00" cType="1" res="-1.6997484490275383e-02" rms="4.0231874585151672e-01" purity="4.3995317816734314e-01" nType="-99"/>
            </Node>
            <Node pos="r" depth="3" NCoef="0" IVar="-1" Cut="0.0000000000000000e+00" cType="1" res="3.9740961045026779e-02" rms="3.6290776729583740e-01" purity="1.6572982072830200e-01" nType="-99"/>
          </Node>
          <Node pos="r" depth="2" NCoef="0" IVar="-1" Cut="0.0000000000000000e+00" cType="1" res="2.8855297714471817e-02" rms="3.8607209920883179e-01" purity="6.8986064195632935e-01" nType="-99"/>
        </Node>
      </Node>
    </BinaryTree>
    <BinaryTree type="DecisionTree" boostWeight="1.0000000000000000e+00" itree="15">
      <Node pos="s" depth="0" NCoef="0" IVar="6" Cut="5.8629900217056274e-01" cType="1" res="-9.5560098998248577e-06" rms="3.9577576518058777e-01" purity="5.0000000000000000e-01" nType="0">
        <Node pos="l" depth="1" NCoef="0" IVar="-1" Cut="0.0000000000000000e+00" cType="1" res="-2.7203507721424103e-02" rms="3.9503729343414307e-01" purity="5.9470480680465698e-01" nType="-99"/>
        <Node pos="r" depth="1" NCoef="0" IVar="5" Cut="9.5805358886718750e+01" cType="1" res="1.2874379754066467e-03" rms="3.9580178260803223e-01" purity="4.9280115962028503e-01" nType="0">
          <Node pos="l" depth="2" NCoef="0" IVar="7" Cut="5.3278857469558716e-01" cType="1" res="7.5573832727968693e-03" rms="4.0087386965751648e-01" purity="6.9839406013488770e-01" nType="0">
            <Node pos="l" depth="3" NCoef="0" IVar="3" Cut="1.2685171508789062e+02" cType="1" res="1.7220513895153999e-02" rms="3.9179378747940063e-01" purity="7.0919674634933472e-01" nType="0">
              <Node pos="l" depth="4" NCoef="0" IVar="-1" Cut="0.0000000000000000e+00" cType="1" res="3.2216142863035202e-02" rms="4.1278851032257080e-01" purity="6.4948266744613647e-01" nType="-99"/>
              <Node pos="r" depth="4" NCoef="0" IVar="-1" Cut="0.0000000000000000e+00" cType="1" res="1.7756035551428795e-02" rms="3.6207351088523865e-01" purity="7.8805881738662720e-01" nType="-99"/>
            </Node>
            <Node pos="r" depth="3" NCoef="0" IVar="4" Cut="3.7819839477539062e+01" cType="1" res="-2.3240812588483095e-03" rms="4.0971556305885315e-01" purity="6.8734723329544067e-01" nType="0">
              <Node pos="l" depth="4" NCoef="0" IVar="-1" Cut="0.0000000000000000e+00" cType="1" res="-2.3162858560681343e-02" rms="4.5604521036148071e-01" purity="5.2844160795211792e-01" nType="-99"/>
              <Node pos="r" depth="4" NCoef="0" IVar="-1" Cut="0.0000000000000000e+00" cType="1" res="6.2565803527832031e-03" rms="3.9069837331771851e-01" purity="7.4708592891693115e-01" nType="-99"/>
            </Node>
          </Node>
          <Node pos="r" depth="2" NCoef="0" IVar="4" Cut="4.4731376647949219e+01" cType="1" res="-3.2026674598455429e-03" rms="3.9206755161285400e-01" purity="3.4556961059570312e-01" nType="0">
            <Node pos="l" depth="3" NCoef="0" IVar="12" Cut="2.0549021911621094e+02" cType="1" res="1.1034937575459480e-02" rms="4.1451919078826904e-01" purity="3.1958162784576416e-01" nType="0">
              <Node pos="l" depth="4" NCoef="0" IVar="-1" Cut="0.0000000000000000e+00" cType="1" res="-1.1598626151680946e-02" rms="4.3280616402626038e-01" purity="3.4406715631484985e-01" nType="-99"/>
              <Node pos="r" depth="4" NCoef="0" IVar="-1" Cut="0.0000000000000000e+00" cType="1" res="3.3299066126346588e-02" rms="4.0493020415306091e-01" purity="3.0760559439659119e-01" nType="-99"/>
            </Node>
            <Node pos="r" depth="3" NCoef="0" IVar="5" Cut="2.0672232055664062e+02" cType="1" res="-9.0515213087201118e-03" rms="3.8230898976325989e-01" purity="3.5624554753303528e-01" nType="0">
              <Node pos="l" depth="4" NCoef="0" IVar="-1" Cut="0.0000000000000000e+00" cType="1" res="-2.1512787789106369e-02" rms="3.9169496297836304e-01" purity="4.3774184584617615e-01" nType="-99"/>
              <Node pos="r" depth="4" NCoef="0" IVar="-1" Cut="0.0000000000000000e+00" cType="1" res="1.8814924405887723e-03" rms="3.5971540212631226e-01" purity="1.6980056464672089e-01" nType="-99"/>
            </Node>
          </Node>
        </Node>
      </Node>
    </BinaryTree>
    <BinaryTree type="DecisionTree" boostWeight="1.0000000000000000e+00" itree="16">
      <Node pos="s" depth="0" NCoef="0" IVar="2" Cut="2.5043907165527344e+00" cType="1" res="-7.7935146691743284e-06" rms="3.9554905891418457e-01" purity="5.0000000000000000e-01" nType="0">
        <Node pos="l" depth="1" NCoef="0" IVar="-1" Cut="0.0000000000000000e+00" cType="1" res="-2.2001817822456360e-02" rms="3.9465507864952087e-01" purity="3.8696533441543579e-01" nType="-99"/>
        <Node pos="r" depth="1" NCoef="0" IVar="3" Cut="9.5894264221191406e+01" cType="1" res="1.2627070536836982e-03" rms="3.9560547471046448e-01" purity="5.1025015115737915e-01" nType="0">
          <Node pos="l" depth="2" NCoef="0" IVar="12" Cut="2.0394302368164062e+02" cType="1" res="1.2523196637630463e-02" rms="4.3096521496772766e-01" purity="5.1199620962142944e-01" nType="0">
            <Node pos="l" depth="3" NCoef="0" IVar="-1" Cut="0.0000000000000000e+00" cType="1" res="2.8699373826384544e-02" rms="4.4631105661392212e-01" purity="5.5417191982269287e-01" nType="-99"/>
            <Node pos="r" depth="3" NCoef="0" IVar="-1" Cut="0.0000000000000000e+00" cType="1" res="-2.6654342655092478e-03" rms="4.0730601549148560e-01" purity="4.5094302296638489e-01" nType="-99"/>
          </Node>
          <Node pos="r" depth="2" NCoef="0" IVar="12" Cut="1.8149789428710938e+02" cType="1" res="-1.4838592614978552e-03" rms="3.8644060492515564e-01" purity="5.0982427597045898e-01" nType="0">
            <Node pos="l" depth="3" NCoef="0" IVar="6" Cut="1.2565345764160156e+00" cType="1" res="-1.2894554063677788e-02" rms="4.2272895574569702e-01" purity="6.0705757141113281e-01" nType="0">
              <Node pos="l" depth="4" NCoef="0" IVar="-1" Cut="0.0000000000000000e+00" cType="1" res="-3.3510271459817886e-02" rms="4.1161444783210754e-01" purity="6.7688637971878052e-01" nType="-99"/>
              <Node pos="r" depth="4" NCoef="0" IVar="-1" Cut="0.0000000000000000e+00" cType="1" res="1.4398667961359024e-02" rms="4.4987478852272034e-01" purity="4.2259496450424194e-01" nType="-99"/>
            </Node>
            <Node pos="r" depth="3" NCoef="0" IVar="5" Cut="1.0950742340087891e+02" cType="1" res="2.8603451792150736e-03" rms="3.7160307168960571e-01" purity="4.7280624508857727e-01" nType="0">
              <Node pos="l" depth="4" NCoef="0" IVar="-1" Cut="0.0000000000000000e+00" cType="1" res="2.4936014786362648e-02" rms="3.5683980584144592e-01" purity="7.9451042413711548e-01" nType="-99"/>
              <Node pos="r" depth="4" NCoef="0" IVar="-1" Cut="0.0000000000000000e+00" cType="1" res="-9.4249173998832703e-03" rms="3.8275825977325439e-01" purity="2.1621404588222504e-01" nType="-99"/>
            </Node>
          </Node>
        </Node>
      </Node>
    </BinaryTree>
    <BinaryTree type="DecisionTree" boostWeight="1.0000000000000000e+00" itree="17">
      <Node pos="s" depth="0" NCoef="0" IVar="1" Cut="5.3449719238281250e+02" cType="1" res="2.5192839530063793e-05" rms="3.9535245299339294e-01" purity="5.0000000000000000e-01" nType="0">
        <Node pos="l" depth="1" NCoef="0" IVar="11" Cut="1.0512792968750000e+02" cType="1" res="-2.5660269893705845e-03" rms="3.9941748976707458e-01" purity="4.7594398260116577e-01" nType="0">
          <Node pos="l" depth="2" NCoef="0" IVar="6" Cut="7.0956093072891235e-01" cType="1" res="-5.5384327424690127e-04" rms="3.9684379100799561e-01" purity="4.9107417464256287e-01" nType="0">
            <Node pos="l" depth="3" NCoef="0" IVar="-1" Cut="0.0000000000000000e+00" cType="1" res="-2.1632973104715347e-02" rms="4.3718430399894714e-01" purity="4.8362606763839722e-01" nType="-99"/>
            <Node pos="r" depth="3" NCoef="0" IVar="11" Cut="2.4214256286621094e+01" cType="1" res="1.3213517377153039e-03" rms="3.9171135425567627e-01" purity="4.9196285009384155e-01" nType="0">
              <Node pos="l" depth="4" NCoef="0" IVar="-1" Cut="0.0000000000000000e+00" cType="1" res="3.1735338270664215e-02" rms="3.7703061103820801e-01" purity="5.9327727556228638e-01" nType="-99"/>
              <Node pos="r" depth="4" NCoef="0" IVar="-1" Cut="0.0000000000000000e+00" cType="1" res="-1.8924403702840209e-03" rms="3.9370724558830261e-01" purity="4.7744584083557129e-01" nType="-99"/>
            </Node>
          </Node>
          <Node pos="r" depth="2" NCoef="0" IVar="-1" Cut="0.0000000000000000e+00" cType="1" res="-2.3662826046347618e-02" rms="4.1673481464385986e-01" purity="3.6991819739341736e-01" nType="-99"/>
        </Node>
        <Node pos="r" depth="1" NCoef="0" IVar="11" Cut="1.4769187927246094e+02" cType="1" res="8.7518841028213501e-03" rms="3.8121423125267029e-01" purity="5.8101564645767212e-01" nType="0">
          <Node pos="l" depth="2" NCoef="0" IVar="11" Cut="6.6778175354003906e+01" cType="1" res="3.8473384920507669e-03" rms="3.7409120798110962e-01" purity="5.7928740978240967e-01" nType="0">
            <Node pos="l" depth="3" NCoef="0" IVar="1" Cut="6.1852990722656250e+02" cType="1" res="1.0623848065733910e-02" rms="3.7017661333084106e-01" purity="6.2582486867904663e-01" nType="0">
              <Node pos="l" depth="4" NCoef="0" IVar="-1" Cut="0.0000000000000000e+00" cType="1" res="3.0529709532856941e-02" rms="3.6633864045143127e-01" purity="5.9820580482482910e-01" nType="-99"/>
              <Node pos="r" depth="4" NCoef="0" IVar="-1" Cut="0.0000000000000000e+00" cType="1" res="6.4958594739437103e-03" rms="3.7418726086616516e-01" purity="6.5586811304092407e-01" nType="-99"/>
            </Node>
            <Node pos="r" depth="3" NCoef="0" IVar="-1" Cut="0.0000000000000000e+00" cType="1" res="-1.1846180073916912e-02" rms="3.7992236018180847e-01" purity="5.0608938932418823e-01" nType="-99"/>
          </Node>
          <Node pos="r" depth="2" NCoef="0" IVar="-1" Cut="0.0000000000000000e+00" cType="1" res="3.6696072667837143e-02" rms="4.0283462405204773e-01" purity="5.8656537532806396e-01" nType="-99"/>
        </Node>
      </Node>
    </BinaryTree>
    <BinaryTree type="DecisionTree" boostWeight="1.0000000000000000e+00" itree="18">
      <Node pos="s" depth="0" NCoef="0" IVar="12" Cut="6.3857348632812500e+02" cType="1" res="1.3888016837881878e-05" rms="3.9521288871765137e-01" purity="5.0000000000000000e-01" nType="0">
        <Node pos="l" depth="1" NCoef="0" IVar="8" Cut="1.2714356422424316e+01" cType="1" res="1.1302107013761997e-03" rms="3.9598357677459717e-01" purity="5.0382119417190552e-01" nType="0">
          <Node pos="l" depth="2" NCoef="0" IVar="11" Cut="3.5022575378417969e+01" cType="1" res="4.7073424793779850e-03" rms="3.9466023445129395e-01" purity="5.3935039043426514e-01" nType="0">
            <Node pos="l" depth="3" NCoef="0" IVar="1" Cut="3.9005755615234375e+02" cType="1" res="-3.4310873597860336e-03" rms="3.7608078122138977e-01" purity="6.1191779375076294e-01" nType="0">
              <Node pos="l" depth="4" NCoef="0" IVar="-1" Cut="0.0000000000000000e+00" cType="1" res="-2.6654932647943497e-02" rms="3.9636847376823425e-01" purity="5.9402263164520264e-01" nType="-99"/>
              <Node pos="r" depth="4" NCoef="0" IVar="-1" Cut="0.0000000000000000e+00" cType="1" res="7.8208325430750847e-03" rms="3.6365011334419250e-01" purity="6.2222707271575928e-01" nType="-99"/>
            </Node>
            <Node pos="r" depth="3" NCoef="0" IVar="6" Cut="1.2936719655990601e+00" cType="1" res="8.7587358430027962e-03" rms="4.0352934598922729e-01" purity="5.0322556495666504e-01" nType="0">
              <Node pos="l" depth="4" NCoef="0" IVar="-1" Cut="0.0000000000000000e+00" cType="1" res="3.3427681773900986e-03" rms="3.9528533816337585e-01" purity="6.7853766679763794e-01" nType="-99"/>
              <Node pos="r" depth="4" NCoef="0" IVar="-1" Cut="0.0000000000000000e+00" cType="1" res="2.3186797276139259e-02" rms="4.1145133972167969e-01" purity="3.2902163267135620e-01" nType="-99"/>
            </Node>
          </Node>
          <Node pos="r" depth="2" NCoef="0" IVar="12" Cut="2.6521963500976562e+02" cType="1" res="-4.7695701941847801e-03" rms="3.9808636903762817e-01" purity="4.4522279500961304e-01" nType="0">
            <Node pos="l" depth="3" NCoef="0" IVar="11" Cut="3.0015054702758789e+01" cType="1" res="-1.2508574873209000e-02" rms="4.1238081455230713e-01" purity="4.6284344792366028e-01" nType="0">
              <Node pos="l" depth="4" NCoef="0" IVar="-1" Cut="0.0000000000000000e+00" cType="1" res="4.5592971146106720e-03" rms="3.9976829290390015e-01" purity="5.8630728721618652e-01" nType="-99"/>
              <Node pos="r" depth="4" NCoef="0" IVar="-1" Cut="0.0000000000000000e+00" cType="1" res="-2.6448013260960579e-02" rms="4.1680109500885010e-01" purity="4.1720497608184814e-01" nType="-99"/>
            </Node>
            <Node pos="r" depth="3" NCoef="0" IVar="6" Cut="1.6631356477737427e+00" cType="1" res="7.4969078414142132e-03" rms="3.7398472428321838e-01" purity="4.1729363799095154e-01" nType="0">
              <Node pos="l" depth="4" NCoef="0" IVar="-1" Cut="0.0000000000000000e+00" cType="1" res="2.4079060181975365e-02" rms="3.9813253283500671e-01" purity="6.8351346254348755e-01" nType="-99"/>
              <Node pos="r" depth="4" NCoef="0" IVar="-1" Cut="0.0000000000000000e+00" cType="1" res="3.0111736850813031e-04" rms="3.4952107071876526e-01" purity="1.6615970432758331e-01" nType="-99"/>
            </Node>
          </Node>
        </Node>
        <Node pos="r" depth="1" NCoef="0" IVar="-1" Cut="0.0000000000000000e+00" cType="1" res="-2.8555253520607948e-02" rms="3.8321834802627563e-01" purity="4.4332295656204224e-01" nType="-99"/>
      </Node>
    </BinaryTree>
    <BinaryTree type="DecisionTree" boostWeight="1.0000000000000000e+00" itree="19">
      <Node pos="s" depth="0" NCoef="0" IVar="12" Cut="1.1620139312744141e+02" cType="1" res="-8.2819718727478175e-07" rms="3.9502876996994019e-01" purity="5.0000000000000000e-01" nType="0">
        <Node pos="l" depth="1" NCoef="0" IVar="-1" Cut="0.0000000000000000e+00" cType="1" res="2.1543297916650772e-02" rms="4.2492622137069702e-01" purity="6.8795174360275269e-01" nType="-99"/>
        <Node pos="r" depth="1" NCoef="0" IVar="4" Cut="6.6848327636718750e+01" cType="1" res="-1.3734847307205200e-03" rms="3.9232468605041504e-01" purity="4.8385936021804810e-01" nType="0">
          <Node pos="l" depth="2" NCoef="0" IVar="9" Cut="4.0099010467529297e+00" cType="1" res="-4.9909646622836590e-03" rms="4.0746685862541199e-01" purity="4.3918088078498840e-01" nType="0">
            <Node pos="l" depth="3" NCoef="0" IVar="5" Cut="1.0814372253417969e+02" cType="1" res="6.8252012133598328e-03" rms="4.3771612644195557e-01" purity="4.6191281080245972e-01" nType="0">
              <Node pos="l" depth="4" NCoef="0" IVar="-1" Cut="0.0000000000000000e+00" cType="1" res="-1.7870547249913216e-02" rms="4.3853992223739624e-01" purity="6.1845690011978149e-01" nType="-99"/>
              <Node pos="r" depth="4" NCoef="0" IVar="-1" Cut="0.0000000000000000e+00" cType="1" res="3.8492169231176376e-02" rms="4.3589332699775696e-01" purity="2.9672363400459290e-01" nType="-99"/>
            </Node>
            <Node pos="r" depth="3" NCoef="0" IVar="7" Cut="8.5633814334869385e-01" cType="1" res="-7.8732613474130630e-03" rms="3.9968806505203247e-01" purity="4.3363597989082336e-01" nType="0">
              <Node pos="l" depth="4" NCoef="0" IVar="-1" Cut="0.0000000000000000e+00" cType="1" res="-3.5885409452021122e-03" rms="4.0959817171096802e-01" purity="5.2196937799453735e-01" nType="-99"/>
              <Node pos="r" depth="4" NCoef="0" IVar="-1" Cut="0.0000000000000000e+00" cType="1" res="-2.5172028690576553e-02" rms="3.8577860593795776e-01" purity="3.1433570384979248e-01" nType="-99"/>
            </Node>
          </Node>
          <Node pos="r" depth="2" NCoef="0" IVar="6" Cut="2.2542967796325684e+00" cType="1" res="5.3346739150583744e-03" rms="3.6248019337654114e-01" purity="5.6670987606048584e-01" nType="0">
            <Node pos="l" depth="3" NCoef="0" IVar="6" Cut="1.2859171628952026e+00" cType="1" res="8.9680999517440796e-03" rms="3.6944875121116638e-01" purity="6.5539664030075073e-01" nType="0">
              <Node pos="l" depth="4" NCoef="0" IVar="-1" Cut="0.0000000000000000e+00" cType="1" res="1.5376014634966850e-03" rms="3.4954783320426941e-01" purity="7.9617327451705933e-01" nType="-99"/>
              <Node pos="r" depth="4" NCoef="0" IVar="-1" Cut="0.0000000000000000e+00" cType="1" res="4.9636133015155792e-02" rms="4.1869717836380005e-01" purity="2.6669713854789734e-01" nType="-99"/>
            </Node>
            <Node pos="r" depth="3" NCoef="0" IVar="-1" Cut="0.0000000000000000e+00" cType="1" res="-2.6384629309177399e-02" rms="3.2558435201644897e-01" purity="1.3193032145500183e-01" nType="-99"/>
          </Node>
        </Node>
      </Node>
    </BinaryTree>
    <BinaryTree type="DecisionTree" boostWeight="1.0000000000000000e+00" itree="20">
      <Node pos="s" depth="0" NCoef="0" IVar="4" Cut="2.9525972366333008e+01" cType="1" res="-4.7723544412292540e-05" rms="3.9482900500297546e-01" purity="5.0000000000000000e-01" nType="0">
        <Node pos="l" depth="1" NCoef="0" IVar="-1" Cut="0.0000000000000000e+00" cType="1" res="1.8284669145941734e-02" rms="4.5046380162239075e-01" purity="4.1627976298332214e-01" nType="-99"/>
        <Node pos="r" depth="1" NCoef="0" IVar="4" Cut="1.0519715881347656e+02" cType="1" res="-8.5911800852045417e-04" rms="3.9131370186805725e-01" purity="5.0489848852157593e-01" nType="0">
          <Node pos="l" depth="2" NCoef="0" IVar="5" Cut="1.5983621215820312e+02" cType="1" res="-1.9427485531195998e-03" rms="3.9346066117286682e-01" purity="4.9769458174705505e-01" nType="0">
            <Node pos="l" depth="3" NCoef="0" IVar="9" Cut="4.0099010467529297e+00" cType="1" res="4.2854182538576424e-04" rms="4.0663301944732666e-01" purity="5.9719580411911011e-01" nType="0">
              <Node pos="l" depth="4" NCoef="0" IVar="-1" Cut="0.0000000000000000e+00" cType="1" res="-1.7289942130446434e-02" rms="4.2206364870071411e-01" purity="5.8725202083587646e-01" nType="-99"/>
              <Node pos="r" depth="4" NCoef="0" IVar="-1" Cut="0.0000000000000000e+00" cType="1" res="4.7726077027618885e-03" rms="4.0312212705612183e-01" purity="5.9937489032745361e-01" nType="-99"/>
            </Node>
            <Node pos="r" depth="3" NCoef="0" IVar="7" Cut="1.4916839599609375e+00" cType="1" res="-1.0231667198240757e-02" rms="3.4334114193916321e-01" purity="1.4988483488559723e-01" nType="0">
              <Node pos="l" depth="4" NCoef="0" IVar="-1" Cut="0.0000000000000000e+00" cType="1" res="-4.6005975455045700e-02" rms="3.3571523427963257e-01" purity="1.4564469456672668e-01" nType="-99"/>
              <Node pos="r" depth="4" NCoef="0" IVar="-1" Cut="0.0000000000000000e+00" cType="1" res="4.7974004410207272e-03" rms="3.4968030452728271e-01" purity="1.5375383198261261e-01" nType="-99"/>
            </Node>
          </Node>
          <Node pos="r" depth="2" NCoef="0" IVar="-1" Cut="0.0000000000000000e+00" cType="1" res="2.1115379408001900e-02" rms="3.6598116159439087e-01" purity="5.8622759580612183e-01" nType="-99"/>
        </Node>
      </Node>
    </BinaryTree>
    <BinaryTree type="DecisionTree" boostWeight="1.0000000000000000e+00" itree="21">
      <Node pos="s" depth="0" NCoef="0" IVar="6" Cut="1.5884107351303101e+00" cType="1" res="-5.2527419029502198e-05" rms="3.9476135373115540e-01" purity="5.0000000000000000e-01" nType="0">
        <Node pos="l" depth="1" NCoef="0" IVar="5" Cut="1.1153016662597656e+02" cType="1" res="-2.5574951432645321e-03" rms="4.0367928147315979e-01" purity="6.6167718172073364e-01" nType="0">
          <Node pos="l" depth="2" NCoef="0" IVar="4" Cut="4.4731380462646484e+01" cType="1" res="5.9246935416013002e-04" rms="3.9376109838485718e-01" purity="7.0477384328842163e-01" nType="0">
            <Node pos="l" depth="3" NCoef="0" IVar="0" Cut="2.0519050598144531e+02" cType="1" res="-1.0495087131857872e-02" rms="4.3915393948554993e-01" purity="5.3935086727142334e-01" nType="0">
              <Node pos="l" depth="4" NCoef="0" IVar="-1" Cut="0.0000000000000000e+00" cType="1" res="-2.2599229589104652e-02" rms="4.4151195883750916e-01" purity="5.0547552108764648e-01" nType="-99"/>
              <Node pos="r" depth="4" NCoef="0" IVar="-1" Cut="0.0000000000000000e+00" cType="1" res="1.0342957451939583e-02" rms="4.3272867798805237e-01" purity="6.2324184179306030e-01" nType="-99"/>
            </Node>
            <Node pos="r" depth="3" NCoef="0" IVar="10" Cut="4.0099010467529297e+00" cType="1" res="5.7216859422624111e-03" rms="3.7077495455741882e-01" purity="7.8130024671554565e-01" nType="0">
              <Node pos="l" depth="4" NCoef="0" IVar="-1" Cut="0.0000000000000000e+00" cType="1" res="-2.3340059444308281e-02" rms="3.9902934432029724e-01" purity="7.4334621429443359e-01" nType="-99"/>
              <Node pos="r" depth="4" NCoef="0" IVar="-1" Cut="0.0000000000000000e+00" cType="1" res="1.7261674627661705e-02" rms="3.6483022570610046e-01" purity="7.8877437114715576e-01" nType="-99"/>
            </Node>
          </Node>
          <Node pos="r" depth="2" NCoef="0" IVar="-1" Cut="0.0000000000000000e+00" cType="1" res="-2.6855196803808212e-02" rms="4.6271815896034241e-01" purity="3.8029992580413818e-01" nType="-99"/>
        </Node>
        <Node pos="r" depth="1" NCoef="0" IVar="10" Cut="4.0099010467529297e+00" cType="1" res="4.2956941761076450e-03" rms="3.7874367833137512e-01" purity="2.1935430169105530e-01" nType="0">
          <Node pos="l" depth="2" NCoef="0" IVar="-1" Cut="0.0000000000000000e+00" cType="1" res="3.4454263746738434e-02" rms="4.3117329478263855e-01" purity="2.9550772905349731e-01" nType="-99"/>
          <Node pos="r" depth="2" NCoef="0" IVar="6" Cut="2.0138862133026123e+00" cType="1" res="-1.1173646198585629e-03" rms="3.6279296875000000e-01" purity="1.9838552176952362e-01" nType="0">
            <Node pos="l" depth="3" NCoef="0" IVar="-1" Cut="0.0000000000000000e+00" cType="1" res="1.1459701694548130e-02" rms="4.1656315326690674e-01" purity="2.9901376366615295e-01" nType="-99"/>
            <Node pos="r" depth="3" NCoef="0" IVar="7" Cut="1.7402971982955933e+00" cType="1" res="-5.9849196113646030e-03" rms="3.2960709929466248e-01" purity="1.4337018132209778e-01" nType="0">
              <Node pos="l" depth="4" NCoef="0" IVar="-1" Cut="0.0000000000000000e+00" cType="1" res="-2.9423385858535767e-02" rms="3.2324028015136719e-01" purity="1.4492954313755035e-01" nType="-99"/>
              <Node pos="r" depth="4" NCoef="0" IVar="-1" Cut="0.0000000000000000e+00" cType="1" res="1.0909609496593475e-02" rms="3.3835199475288391e-01" purity="1.4110356569290161e-01" nType="-99"/>
            </Node>
          </Node>
        </Node>
      </Node>
    </BinaryTree>
    <BinaryTree type="DecisionTree" boostWeight="1.0000000000000000e+00" itree="22">
      <Node pos="s" depth="0" NCoef="0" IVar="2" Cut="3.1201372146606445e+00" cType="1" res="-4.1963758121710271e-05" rms="3.9457556605339050e-01" purity="5.0000000000000000e-01" nType="0">
        <Node pos="l" depth="1" NCoef="0" IVar="9" Cut="4.0099010467529297e+00" cType="1" res="-8.5834402125328779e-04" rms="3.9480042457580566e-01" purity="4.9436575174331665e-01" nType="0">
          <Node pos="l" depth="2" NCoef="0" IVar="5" Cut="1.5105612182617188e+02" cType="1" res="6.1533772386610508e-03" rms="4.2528295516967773e-01" purity="5.0109380483627319e-01" nType="0">
            <Node pos="l" depth="3" NCoef="0" IVar="4" Cut="5.7172164916992188e+01" cType="1" res="-4.5097623951733112e-03" rms="4.2275434732437134e-01" purity="6.0036695003509521e-01" nType="0">
              <Node pos="l" depth="4" NCoef="0" IVar="-1" Cut="0.0000000000000000e+00" cType="1" res="8.1906029954552650e-03" rms="4.4721680879592896e-01" purity="5.2837181091308594e-01" nType="-99"/>
              <Node pos="r" depth="4" NCoef="0" IVar="-1" Cut="0.0000000000000000e+00" cType="1" res="-3.5035751760005951e-02" rms="3.8404765725135803e-01" purity="7.0461565256118774e-01" nType="-99"/>
            </Node>
            <Node pos="r" depth="3" NCoef="0" IVar="-1" Cut="0.0000000000000000e+00" cType="1" res="4.4349122792482376e-02" rms="4.3003523349761963e-01" purity="2.7304744720458984e-01" nType="-99"/>
          </Node>
          <Node pos="r" depth="2" NCoef="0" IVar="5" Cut="1.3542440795898438e+02" cType="1" res="-2.5418945588171482e-03" rms="3.8710531592369080e-01" purity="4.9275031685829163e-01" nType="0">
            <Node pos="l" depth="3" NCoef="0" IVar="5" Cut="8.2626296997070312e+01" cType="1" res="3.8598253740929067e-04" rms="4.0562045574188232e-01" purity="6.3747751712799072e-01" nType="0">
              <Node pos="l" depth="4" NCoef="0" IVar="-1" Cut="0.0000000000000000e+00" cType="1" res="-1.2717760168015957e-02" rms="4.3533301353454590e-01" purity="5.4546606540679932e-01" nType="-99"/>
              <Node pos="r" depth="4" NCoef="0" IVar="-1" Cut="0.0000000000000000e+00" cType="1" res="9.8920315504074097e-03" rms="3.8773310184478760e-01" purity="6.8940967321395874e-01" nType="-99"/>
            </Node>
            <Node pos="r" depth="3" NCoef="0" IVar="12" Cut="4.4791848754882812e+02" cType="1" res="-9.6240434795618057e-03" rms="3.3804863691329956e-01" purity="1.4267422258853912e-01" nType="0">
              <Node pos="l" depth="4" NCoef="0" IVar="-1" Cut="0.0000000000000000e+00" cType="1" res="-2.9675312340259552e-02" rms="3.2862341403961182e-01" purity="1.3365998864173889e-01" nType="-99"/>
              <Node pos="r" depth="4" NCoef="0" IVar="-1" Cut="0.0000000000000000e+00" cType="1" res="8.3490461111068726e-03" rms="3.6618456244468689e-01" purity="1.7146505415439606e-01" nType="-99"/>
            </Node>
          </Node>
        </Node>
        <Node pos="r" depth="1" NCoef="0" IVar="-1" Cut="0.0000000000000000e+00" cType="1" res="1.9172200933098793e-02" rms="3.9111968874931335e-01" purity="5.8146136999130249e-01" nType="-99"/>
      </Node>
    </BinaryTree>
    <BinaryTree type="DecisionTree" boostWeight="1.0000000000000000e+00" itree="23">
      <Node pos="s" depth="0" NCoef="0" IVar="12" Cut="5.6239422607421875e+02" cType="1" res="-5.1314265874680132e-05" rms="3.9442655444145203e-01" purity="5.0000000000000000e-01" nType="0">
        <Node pos="l" depth="1" NCoef="0" IVar="12" Cut="1.1243012237548828e+02" cType="1" res="9.5390737988054752e-04" rms="3.9551654458045959e-01" purity="5.0484710931777954e-01" nType="0">
          <Node pos="l" depth="2" NCoef="0" IVar="-1" Cut="0.0000000000000000e+00" cType="1" res="2.5690756738185883e-02" rms="4.2201673984527588e-01" purity="6.9209659099578857e-01" nType="-99"/>
          <Node pos="r" depth="2" NCoef="0" IVar="12" Cut="1.3916072082519531e+02" cType="1" res="-5.5773789063096046e-04" rms="3.9317333698272705e-01" purity="4.8912921547889709e-01" nType="0">
            <Node pos="l" depth="3" NCoef="0" IVar="-1" Cut="0.0000000000000000e+00" cType="1" res="-2.5096671655774117e-02" rms="4.3629506230354309e-01" purity="6.2164795398712158e-01" nType="-99"/>
            <Node pos="r" depth="3" NCoef="0" IVar="6" Cut="9.3998551368713379e-01" cType="1" res="1.0035750456154346e-03" rms="3.8908904790878296e-01" purity="4.7740304470062256e-01" nType="0">
              <Node pos="l" depth="4" NCoef="0" IVar="-1" Cut="0.0000000000000000e+00" cType="1" res="1.8189279362559319e-02" rms="3.6002486944198608e-01" purity="7.2067803144454956e-01" nType="-99"/>
              <Node pos="r" depth="4" NCoef="0" IVar="-1" Cut="0.0000000000000000e+00" cType="1" res="-3.5683431196957827e-03" rms="3.9959260821342468e-01" purity="3.8440611958503723e-01" nType="-99"/>
            </Node>
          </Node>
        </Node>
        <Node pos="r" depth="1" NCoef="0" IVar="-1" Cut="0.0000000000000000e+00" cType="1" res="-1.8171496689319611e-02" rms="3.8273319602012634e-01" purity="4.4951948523521423e-01" nType="-99"/>
      </Node>
    </BinaryTree>
    <BinaryTree type="DecisionTree" boostWeight="1.0000000000000000e+00" itree="24">
      <Node pos="s" depth="0" NCoef="0" IVar="6" Cut="1.2641981840133667e+00" cType="1" res="-1.4779448974877596e-05" rms="3.9434668421745300e-01" purity="5.0000000000000000e-01" nType="0">
        <Node pos="l" depth="1" NCoef="0" IVar="1" Cut="4.0425729370117188e+02" cType="1" res="-3.7052009720355272e-03" rms="3.8924413919448853e-01" purity="6.9986695051193237e-01" nType="0">
          <Node pos="l" depth="2" NCoef="0" IVar="3" Cut="1.0756967926025391e+02" cType="1" res="-1.3517465442419052e-02" rms="4.1033110022544861e-01" purity="6.1800485849380493e-01" nType="0">
            <Node pos="l" depth="3" NCoef="0" IVar="-1" Cut="0.0000000000000000e+00" cType="1" res="-1.0560823604464531e-02" rms="4.1105630993843079e-01" purity="6.0048508644104004e-01" nType="-99"/>
            <Node pos="r" depth="3" NCoef="0" IVar="-1" Cut="0.0000000000000000e+00" cType="1" res="-3.3534683287143707e-02" rms="4.0913841128349304e-01" purity="6.4268100261688232e-01" nType="-99"/>
          </Node>
          <Node pos="r" depth="2" NCoef="0" IVar="5" Cut="6.8051620483398438e+01" cType="1" res="8.9800340356305242e-04" rms="3.7885996699333191e-01" purity="7.3827075958251953e-01" nType="0">
            <Node pos="l" depth="3" NCoef="0" IVar="-1" Cut="0.0000000000000000e+00" cType="1" res="2.4761933833360672e-02" rms="4.6090465784072876e-01" purity="4.0693032741546631e-01" nType="-99"/>
            <Node pos="r" depth="3" NCoef="0" IVar="10" Cut="4.0099010467529297e+00" cType="1" res="-2.7981433086097240e-03" rms="3.6117479205131531e-01" purity="8.0079704523086548e-01" nType="0">
              <Node pos="l" depth="4" NCoef="0" IVar="-1" Cut="0.0000000000000000e+00" cType="1" res="-4.1821289807558060e-02" rms="4.0031266212463379e-01" purity="7.4389201402664185e-01" nType="-99"/>
              <Node pos="r" depth="4" NCoef="0" IVar="-1" Cut="0.0000000000000000e+00" cType="1" res="3.7352719809859991e-03" rms="3.5206997394561768e-01" purity="8.1295561790466309e-01" nType="-99"/>
            </Node>
          </Node>
        </Node>
        <Node pos="r" depth="1" NCoef="0" IVar="12" Cut="1.6600569152832031e+02" cType="1" res="3.7959222681820393e-03" rms="3.9951136708259583e-01" purity="2.9361885786056519e-01" nType="0">
          <Node pos="l" depth="2" NCoef="0" IVar="-1" Cut="0.0000000000000000e+00" cType="1" res="2.8199246153235435e-02" rms="4.6346685290336609e-01" purity="5.2554452419281006e-01" nType="-99"/>
          <Node pos="r" depth="2" NCoef="0" IVar="4" Cut="9.0347595214843750e+01" cType="1" res="9.5515087014064193e-04" rms="3.8950634002685547e-01" purity="2.6071950793266296e-01" nType="0">
            <Node pos="l" depth="3" NCoef="0" IVar="4" Cut="4.4361839294433594e+01" cType="1" res="-1.7489911988377571e-03" rms="3.8834297657012939e-01" purity="2.6599228382110596e-01" nType="0">
              <Node pos="l" depth="4" NCoef="0" IVar="-1" Cut="0.0000000000000000e+00" cType="1" res="1.1741565540432930e-02" rms="4.1814237833023071e-01" purity="3.2900229096412659e-01" nType="-99"/>
              <Node pos="r" depth="4" NCoef="0" IVar="-1" Cut="0.0000000000000000e+00" cType="1" res="-1.5139835886657238e-02" rms="3.6638739705085754e-01" purity="2.2283601760864258e-01" nType="-99"/>
            </Node>
            <Node pos="r" depth="3" NCoef="0" IVar="-1" Cut="0.0000000000000000e+00" cType="1" res="3.6237005144357681e-02" rms="3.9754039049148560e-01" purity="2.2115759551525116e-01" nType="-99"/>
          </Node>
        </Node>
      </Node>
    </BinaryTree>
    <BinaryTree type="DecisionTree" boostWeight="1.0000000000000000e+00" itree="25">
      <Node pos="s" depth="0" NCoef="0" IVar="6" Cut="6.1577290296554565e-01" cType="1" res="-8.8628894445719197e-06" rms="3.9416787028312683e-01" purity="5.0000000000000000e-01" nType="0">
        <Node pos="l" depth="1" NCoef="0" IVar="-1" Cut="0.0000000000000000e+00" cType="1" res="-2.0200727507472038e-02" rms="3.9343863725662231e-01" purity="6.0333484411239624e-01" nType="-99"/>
        <Node pos="r" depth="1" NCoef="0" IVar="7" Cut="1.0497032403945923e+00" cType="1" res="1.1844285763800144e-03" rms="3.9421835541725159e-01" purity="4.8994928598403931e-01" nType="0">
          <Node pos="l" depth="2" NCoef="0" IVar="3" Cut="9.2454498291015625e+01" cType="1" res="3.4409440122544765e-03" rms="3.9600759744644165e-01" purity="5.8455288410186768e-01" nType="0">
            <Node pos="l" depth="3" NCoef="0" IVar="-1" Cut="0.0000000000000000e+00" cType="1" res="2.0194992423057556e-02" rms="4.3437120318412781e-01" purity="5.6749659776687622e-01" nType="-99"/>
            <Node pos="r" depth="3" NCoef="0" IVar="11" Cut="3.7526340484619141e+01" cType="1" res="7.0385989965870976e-04" rms="3.8658550381660461e-01" purity="5.8847939968109131e-01" nType="0">
              <Node pos="l" depth="4" NCoef="0" IVar="-1" Cut="0.0000000000000000e+00" cType="1" res="1.5408335253596306e-02" rms="3.8004353642463684e-01" purity="6.6531574726104736e-01" nType="-99"/>
              <Node pos="r" depth="4" NCoef="0" IVar="-1" Cut="0.0000000000000000e+00" cType="1" res="-8.8866082951426506e-03" rms="3.9120644330978394e-01" purity="5.3202694654464722e-01" nType="-99"/>
            </Node>
          </Node>
          <Node pos="r" depth="2" NCoef="0" IVar="5" Cut="1.1890153503417969e+02" cType="1" res="-4.2429836466908455e-03" rms="3.8982775807380676e-01" purity="2.6240697503089905e-01" nType="0">
            <Node pos="l" depth="3" NCoef="0" IVar="-1" Cut="0.0000000000000000e+00" cType="1" res="-3.6263510584831238e-02" rms="4.6219396591186523e-01" purity="5.4980015754699707e-01" nType="-99"/>
            <Node pos="r" depth="3" NCoef="0" IVar="11" Cut="3.5022575378417969e+01" cType="1" res="3.8025565445423126e-03" rms="3.6394056677818298e-01" purity="1.7272342741489410e-01" nType="0">
              <Node pos="l" depth="4" NCoef="0" IVar="-1" Cut="0.0000000000000000e+00" cType="1" res="-2.9142204672098160e-02" rms="3.6482137441635132e-01" purity="1.6923843324184418e-01" nType="-99"/>
              <Node pos="r" depth="4" NCoef="0" IVar="-1" Cut="0.0000000000000000e+00" cType="1" res="2.3587707430124283e-02" rms="3.6326923966407776e-01" purity="1.7411696910858154e-01" nType="-99"/>
            </Node>
          </Node>
        </Node>
      </Node>
    </BinaryTree>
    <BinaryTree type="DecisionTree" boostWeight="1.0000000000000000e+00" itree="26">
      <Node pos="s" depth="0" NCoef="0" IVar="6" Cut="2.5610487461090088e+00" cType="1" res="-1.4182867744239047e-05" rms="3.9397725462913513e-01" purity="5.0000000000000000e-01" nType="0">
        <Node pos="l" depth="1" NCoef="0" IVar="5" Cut="1.1548276519775391e+02" cType="1" res="9.5929380040615797e-04" rms="3.9864370226860046e-01" purity="5.3367370367050171e-01" nType="0">
          <Node pos="l" depth="2" NCoef="0" IVar="5" Cut="9.8850547790527344e+01" cType="1" res="-1.6113282181322575e-03" rms="4.0305259823799133e-01" purity="6.8378102779388428e-01" nType="0">
            <Node pos="l" depth="3" NCoef="0" IVar="5" Cut="8.5831489562988281e+01" cType="1" res="1.9472271669656038e-03" rms="3.9626511931419373e-01" purity="6.9021415710449219e-01" nType="0">
              <Node pos="l" depth="4" NCoef="0" IVar="-1" Cut="0.0000000000000000e+00" cType="1" res="-4.9156402237713337e-03" rms="4.2613878846168518e-01" purity="5.9481716156005859e-01" nType="-99"/>
              <Node pos="r" depth="4" NCoef="0" IVar="-1" Cut="0.0000000000000000e+00" cType="1" res="1.9606472924351692e-02" rms="3.4679678082466125e-01" purity="8.3251065015792847e-01" nType="-99"/>
            </Node>
            <Node pos="r" depth="3" NCoef="0" IVar="-1" Cut="0.0000000000000000e+00" cType="1" res="-2.1019056439399719e-02" rms="4.2775419354438782e-01" purity="6.5916931629180908e-01" nType="-99"/>
          </Node>
          <Node pos="r" depth="2" NCoef="0" IVar="5" Cut="1.3035391235351562e+02" cType="1" res="6.4149098470807076e-03" rms="3.8906496763229370e-01" purity="2.1510179340839386e-01" nType="0">
            <Node pos="l" depth="3" NCoef="0" IVar="-1" Cut="0.0000000000000000e+00" cType="1" res="2.9524043202400208e-02" rms="4.4463542103767395e-01" purity="3.2125139236450195e-01" nType="-99"/>
            <Node pos="r" depth="3" NCoef="0" IVar="0" Cut="2.2665347290039062e+02" cType="1" res="2.5197248905897141e-03" rms="3.7397786974906921e-01" purity="1.8890078365802765e-01" nType="0">
              <Node pos="l" depth="4" NCoef="0" IVar="-1" Cut="0.0000000000000000e+00" cType="1" res="1.3957067392766476e-02" rms="3.5313659906387329e-01" purity="1.5690714120864868e-01" nType="-99"/>
              <Node pos="r" depth="4" NCoef="0" IVar="-1" Cut="0.0000000000000000e+00" cType="1" res="-1.5403324738144875e-02" rms="4.3841415643692017e-01" purity="3.0000889301300049e-01" nType="-99"/>
            </Node>
          </Node>
        </Node>
        <Node pos="r" depth="1" NCoef="0" IVar="-1" Cut="0.0000000000000000e+00" cType="1" res="-2.0400082692503929e-02" rms="3.4122714400291443e-01" purity="1.4795449376106262e-01" nType="-99"/>
      </Node>
    </BinaryTree>
    <BinaryTree type="DecisionTree" boostWeight="1.0000000000000000e+00" itree="27">
      <Node pos="s" depth="0" NCoef="0" IVar="2" Cut="2.8817837238311768e+00" cType="1" res="-1.0235505214950535e-05" rms="3.9388197660446167e-01" purity="5.0000000000000000e-01" nType="0">
        <Node pos="l" depth="1" NCoef="0" IVar="9" Cut="4.0099010467529297e+00" cType="1" res="3.6961929872632027e-03" rms="3.9807119965553284e-01" purity="4.1223746538162231e-01" nType="0">
          <Node pos="l" depth="2" NCoef="0" IVar="-1" Cut="0.0000000000000000e+00" cType="1" res="2.5468111038208008e-02" rms="4.3052425980567932e-01" purity="4.4311848282814026e-01" nType="-99"/>
          <Node pos="r" depth="2" NCoef="0" IVar="2" Cut="2.7087216377258301e+00" cType="1" res="3.9487975300289690e-04" rms="3.9020186662673950e-01" purity="4.0518099069595337e-01" nType="0">
            <Node pos="l" depth="3" NCoef="0" IVar="-1" Cut="0.0000000000000000e+00" cType="1" res="-7.8074438497424126e-03" rms="3.8789027929306030e-01" purity="3.8427376747131348e-01" nType="-99"/>
            <Node pos="r" depth="3" NCoef="0" IVar="-1" Cut="0.0000000000000000e+00" cType="1" res="9.6985548734664917e-03" rms="3.9259025454521179e-01" purity="4.2760768532752991e-01" nType="-99"/>
          </Node>
        </Node>
        <Node pos="r" depth="1" NCoef="0" IVar="11" Cut="6.0060199737548828e+01" cType="1" res="-1.9274324877187610e-03" rms="3.9168369770050049e-01" purity="5.4539626836776733e-01" nType="0">
          <Node pos="l" depth="2" NCoef="0" IVar="5" Cut="6.8855621337890625e+01" cType="1" res="3.5449097049422562e-04" rms="3.8676932454109192e-01" purity="5.6739753484725952e-01" nType="0">
            <Node pos="l" depth="3" NCoef="0" IVar="-1" Cut="0.0000000000000000e+00" cType="1" res="-2.0172711461782455e-02" rms="4.6821770071983337e-01" purity="4.4317069649696350e-01" nType="-99"/>
            <Node pos="r" depth="3" NCoef="0" IVar="7" Cut="1.6850496530532837e+00" cType="1" res="2.5455399882048368e-03" rms="3.7564343214035034e-01" purity="5.8245038986206055e-01" nType="0">
              <Node pos="l" depth="4" NCoef="0" IVar="-1" Cut="0.0000000000000000e+00" cType="1" res="7.5913313776254654e-03" rms="3.7811151146888733e-01" purity="6.3682669401168823e-01" nType="-99"/>
              <Node pos="r" depth="4" NCoef="0" IVar="-1" Cut="0.0000000000000000e+00" cType="1" res="-2.1886862814426422e-02" rms="3.5544428229331970e-01" purity="1.5747702121734619e-01" nType="-99"/>
            </Node>
          </Node>
          <Node pos="r" depth="2" NCoef="0" IVar="3" Cut="1.3029148864746094e+02" cType="1" res="-1.0180123150348663e-02" rms="4.0885782241821289e-01" purity="4.6582767367362976e-01" nType="0">
            <Node pos="l" depth="3" NCoef="0" IVar="-1" Cut="0.0000000000000000e+00" cType="1" res="2.6049439838971011e-05" rms="4.2884176969528198e-01" purity="4.7270506620407104e-01" nType="-99"/>
            <Node pos="r" depth="3" NCoef="0" IVar="-1" Cut="0.0000000000000000e+00" cType="1" res="-4.0886767208576202e-02" rms="3.7933123111724854e-01" purity="4.5640555024147034e-01" nType="-99"/>
          </Node>
        </Node>
      </Node>
    </BinaryTree>
    <BinaryTree type="DecisionTree" boostWeight="1.0000000000000000e+00" itree="28">
      <Node pos="s" depth="0" NCoef="0" IVar="0" Cut="1.5919842529296875e+02" cType="1" res="-1.3987146303406917e-05" rms="3.9378374814987183e-01" purity="5.0000000000000000e-01" nType="0">
        <Node pos="l" depth="1" NCoef="0" IVar="3" Cut="1.2685198974609375e+02" cType="1" res="-6.5830936655402184e-03" rms="3.9303895831108093e-01" purity="4.0876847505569458e-01" nType="0">
          <Node pos="l" depth="2" NCoef="0" IVar="-1" Cut="0.0000000000000000e+00" cType="1" res="-1.7678191885352135e-02" rms="4.0329575538635254e-01" purity="4.3999484181404114e-01" nType="-99"/>
          <Node pos="r" depth="2" NCoef="0" IVar="-1" Cut="0.0000000000000000e+00" cType="1" res="6.1294878832995892e-03" rms="3.7215039134025574e-01" purity="3.4823596477508545e-01" nType="-99"/>
        </Node>
        <Node pos="r" depth="1" NCoef="0" IVar="11" Cut="3.5022575378417969e+01" cType="1" res="1.2538484297692776e-03" rms="3.9391469955444336e-01" purity="5.1760768890380859e-01" nType="0">
          <Node pos="l" depth="2" NCoef="0" IVar="2" Cut="2.9900460243225098e+00" cType="1" res="-3.2061333768069744e-03" rms="3.7872689962387085e-01" purity="5.9434700012207031e-01" nType="0">
            <Node pos="l" depth="3" NCoef="0" IVar="-1" Cut="0.0000000000000000e+00" cType="1" res="-3.6297280341386795e-02" rms="3.8996100425720215e-01" purity="4.7691437602043152e-01" nType="-99"/>
            <Node pos="r" depth="3" NCoef="0" IVar="5" Cut="1.2524080657958984e+02" cType="1" res="1.6482272185385227e-03" rms="3.7564620375633240e-01" purity="6.2437665462493896e-01" nType="0">
              <Node pos="l" depth="4" NCoef="0" IVar="-1" Cut="0.0000000000000000e+00" cType="1" res="1.0275813750922680e-02" rms="3.6640423536300659e-01" purity="7.8518062829971313e-01" nType="-99"/>
              <Node pos="r" depth="4" NCoef="0" IVar="-1" Cut="0.0000000000000000e+00" cType="1" res="-1.3456415385007858e-02" rms="3.9800930023193359e-01" purity="2.1528542041778564e-01" nType="-99"/>
            </Node>
          </Node>
          <Node pos="r" depth="2" NCoef="0" IVar="5" Cut="6.8051620483398438e+01" cType="1" res="3.2712568063288927e-03" rms="4.0057927370071411e-01" purity="4.8289576172828674e-01" nType="0">
            <Node pos="l" depth="3" NCoef="0" IVar="-1" Cut="0.0000000000000000e+00" cType="1" res="2.3472566157579422e-02" rms="4.5218873023986816e-01" purity="3.7551242113113403e-01" nType="-99"/>
            <Node pos="r" depth="3" NCoef="0" IVar="12" Cut="1.8313174438476562e+02" cType="1" res="9.2370522907003760e-04" rms="3.9218270778656006e-01" purity="4.9903410673141479e-01" nType="0">
              <Node pos="l" depth="4" NCoef="0" IVar="-1" Cut="0.0000000000000000e+00" cType="1" res="-1.9592868164181709e-02" rms="4.3765476346015930e-01" purity="5.8794760704040527e-01" nType="-99"/>
              <Node pos="r" depth="4" NCoef="0" IVar="-1" Cut="0.0000000000000000e+00" cType="1" res="7.7642789110541344e-03" rms="3.8089886307716370e-01" purity="4.7864231467247009e-01" nType="-99"/>
            </Node>
          </Node>
        </Node>
      </Node>
    </BinaryTree>
    <BinaryTree type="DecisionTree" boostWeight="1.0000000000000000e+00" itree="29">
      <Node pos="s" depth="0" NCoef="0" IVar="2" Cut="2.5043907165527344e+00" cType="1" res="-9.5782143034739420e-06" rms="3.9366894960403442e-01" purity="5.0000000000000000e-01" nType="0">
        <Node pos="l" depth="1" NCoef="0" IVar="-1" Cut="0.0000000000000000e+00" cType="1" res="-1.2982174754142761e-02" rms="3.9275899529457092e-01" purity="3.8696533441543579e-01" nType="-99"/>
        <Node pos="r" depth="1" NCoef="0" IVar="3" Cut="1.4061064147949219e+02" cType="1" res="7.3071056976914406e-04" rms="3.9374297857284546e-01" purity="5.1025015115737915e-01" nType="0">
          <Node pos="l" depth="2" NCoef="0" IVar="5" Cut="1.0757756805419922e+02" cType="1" res="3.4877066500484943e-03" rms="4.0711215138435364e-01" purity="5.2024573087692261e-01" nType="0">
            <Node pos="l" depth="3" NCoef="0" IVar="11" Cut="8.0090309143066406e+01" cType="1" res="-5.7406275300309062e-04" rms="4.1416993737220764e-01" purity="6.6083347797393799e-01" nType="0">
              <Node pos="l" depth="4" NCoef="0" IVar="-1" Cut="0.0000000000000000e+00" cType="1" res="4.5844716951251030e-03" rms="4.0504929423332214e-01" purity="6.9787609577178955e-01" nType="-99"/>
              <Node pos="r" depth="4" NCoef="0" IVar="-1" Cut="0.0000000000000000e+00" cType="1" res="-1.3486934825778008e-02" rms="4.3849349021911621e-01" purity="5.5733335018157959e-01" nType="-99"/>
            </Node>
            <Node pos="r" depth="3" NCoef="0" IVar="11" Cut="4.0030105590820312e+01" cType="1" res="1.1776972562074661e-02" rms="3.9218437671661377e-01" purity="2.3333401978015900e-01" nType="0">
              <Node pos="l" depth="4" NCoef="0" IVar="-1" Cut="0.0000000000000000e+00" cType="1" res="-5.9044337831437588e-03" rms="3.9938461780548096e-01" purity="2.5737559795379639e-01" nType="-99"/>
              <Node pos="r" depth="4" NCoef="0" IVar="-1" Cut="0.0000000000000000e+00" cType="1" res="3.3548276871442795e-02" rms="3.8853061199188232e-01" purity="2.2201263904571533e-01" nType="-99"/>
            </Node>
          </Node>
          <Node pos="r" depth="2" NCoef="0" IVar="12" Cut="1.7443664550781250e+02" cType="1" res="-2.6181847788393497e-03" rms="3.7683907151222229e-01" purity="4.9810865521430969e-01" nType="0">
            <Node pos="l" depth="3" NCoef="0" IVar="-1" Cut="0.0000000000000000e+00" cType="1" res="-2.0066739991307259e-02" rms="4.1487869620323181e-01" purity="6.3411074876785278e-01" nType="-99"/>
            <Node pos="r" depth="3" NCoef="0" IVar="5" Cut="1.1242874145507812e+02" cType="1" res="-5.4152670782059431e-04" rms="3.6909624934196472e-01" purity="4.7214820981025696e-01" nType="0">
              <Node pos="l" depth="4" NCoef="0" IVar="-1" Cut="0.0000000000000000e+00" cType="1" res="1.3438608497381210e-02" rms="3.4778901934623718e-01" purity="8.1704527139663696e-01" nType="-99"/>
              <Node pos="r" depth="4" NCoef="0" IVar="-1" Cut="0.0000000000000000e+00" cType="1" res="-9.7016589716076851e-03" rms="3.8407355546951294e-01" purity="2.1595720946788788e-01" nType="-99"/>
            </Node>
          </Node>
        </Node>
      </Node>
    </BinaryTree>
    <BinaryTree type="DecisionTree" boostWeight="1.0000000000000000e+00" itree="30">
      <Node pos="s" depth="0" NCoef="0" IVar="0" Cut="3.1557150268554688e+02" cType="1" res="-1.9859817257383838e-05" rms="3.9357373118400574e-01" purity="5.0000000000000000e-01" nType="0">
